sample_id,E0,E1,E2,E3,E4,E5,E6,E7,E8,E9,E10,E11,E12,E13,E14,E15,E16,E17,E18
MB-0177,-1.1295899,0.7271579,1.4129219,1.3045986,-1.5297145,-0.12802456,1.2583072,2.5505233,-1.0879718,2.4856799,1.4740374,1.2774653,1.3727989,-2.2527804,-0.36677012,-0.1789978,-0.38056374,2.2817554,-0.6288571
MB-5115,0.35240406,5.8083305,-3.4783957,-0.1466259,0.39060318,4.274947,-4.4099383,-8.144719,-3.7266977,-6.1133585,0.7837595,-3.908979,0.063239194,7.383131,2.1164417,12.265211,1.6705978,0.29005942,-1.8743639
MB-3781,0.07074807,1.1994786,1.0994637,0.16382095,0.18301679,0.17052262,0.63744575,0.5536389,0.3689339,0.7740066,-1.376791,-0.88482296,0.5070692,-1.1155727,0.4058765,-1.3321368,-0.3261943,2.1462286,0.5076201
MB-5271,2.9584773,-0.36281163,-3.292312,-2.8086414,1.7103143,0.23898229,-0.46161816,-1.7767704,-2.0571887,-1.8313521,-1.7828585,-1.2621047,-0.0281372,2.1760354,-0.7727552,-0.3861606,-0.5196962,-0.6000172,0.38486874
MB-6179,-0.70265967,0.48511046,-1.9442867,-2.3527622,2.4478142,-0.8048058,0.18420869,-0.23242034,-1.9112862,1.1066685,-1.8120378,-0.59645545,1.0432447,-0.4787887,1.4532173,-0.85797876,0.069551066,0.50865775,0.8266121
MB-0492,2.0830574,-0.18277515,-1.978882,-2.279507,1.637114,-0.46348098,0.68917495,-0.21164204,-1.6602358,-0.9034557,-1.4482162,-0.0422709,0.55701303,0.5822079,-0.8008033,-1.670971,-1.1449752,0.24692103,0.5508085
MB-5135,0.9541027,5.154975,-5.1131797,-0.23430508,-0.06473007,3.5970771,-4.116678,-8.515241,-4.385924,-5.3777986,2.2749026,-2.458461,-0.17664021,7.988754,0.17473254,11.922412,0.87971354,-1.2272925,-2.3136811
MB-5079,-1.6162658,0.44021702,1.544892,0.19461244,0.3849241,-0.5430076,0.67905873,2.500653,-0.9040885,1.4672089,0.7739439,0.3707739,0.24623716,-1.2236338,0.29817107,-0.6522027,0.0074611753,1.552946,0.4669123
MB-5243,1.379296,0.2725506,-1.2209272,-1.5547338,-0.13305691,-0.6627665,0.18428192,0.32079467,-1.6333661,0.18145876,-0.8704937,-0.42194682,1.2041403,0.211456,0.3070444,-0.017242387,-0.27512023,0.6012787,0.04698261
MB-2984,1.8638366,-0.81049603,-3.0945437,-3.2183,3.1411738,0.39515683,-0.088804275,-0.60301036,-1.1871216,-2.6919253,-3.334138,-1.0332273,0.8408302,3.194383,0.8031841,-1.4529063,-0.48382425,-1.7680757,1.082528
MB-4017,3.1164472,0.54551053,-3.830682,-3.0186133,2.0963643,-0.28734678,-0.28532755,-1.4582318,-1.3693525,-2.4143028,-3.2877076,-0.8767587,2.0411048,3.3622167,0.67917675,-0.4980095,-0.785695,-2.240559,1.4857918
MB-5447,1.8824328,-0.49183,-2.952884,-1.608077,0.54272336,-0.32940766,0.32527623,-0.54820275,-1.681986,0.2770148,-1.5467123,0.6152456,1.5059674,1.0288175,-0.33057866,-1.0156885,-0.629159,-0.923645,-0.066452235
MB-5616,3.1719232,2.2296312,-4.182389,-0.51598805,-3.4355776,1.3866659,-1.283248,-4.950868,-6.943431,0.067488424,4.0788736,-0.03716564,0.6530183,1.0409241,-2.8032997,8.2399025,-0.32719165,2.1609962,-3.2892244
MB-3021,-1.5863321,1.3543186,0.12050488,-0.11243789,0.74503726,-0.1463828,0.8383289,1.2178451,0.20902264,0.20846245,-1.2212856,0.2230479,1.9976352,-0.6208101,1.5055939,-0.63409394,-0.073609576,0.8357122,0.44027072
MB-0872,0.059784107,1.884788,4.449384,4.110883,-4.1903114,2.369054,0.14264941,1.7771361,2.4872174,0.47698122,1.3491895,0.8560457,2.2395625,0.67015016,-0.63347596,0.51712203,-1.5718076,1.5315793,-1.2436373
MB-3386,7.456905,1.0097514,0.65987694,0.43801552,-3.4415526,5.152071,-1.8245285,-5.2074094,-0.2246804,-3.5182505,0.7450895,-1.3582606,-1.4093571,3.6214666,-4.855063,4.095838,-0.9991719,-0.80484396,0.10127572
MB-7080,-0.73594826,0.6126495,2.6590173,0.27629822,-0.31959194,-0.31124696,1.0400536,2.3016808,-0.042969674,2.1377306,0.45694336,0.30504882,0.25495374,-2.5022173,-0.033382393,-1.1511185,-0.29729456,2.0842159,0.9762442
MB-5405,4.2532043,-0.56036603,-4.0482807,-2.6912992,-0.87138546,-1.0637507,0.3302564,-2.6607258,-6.064222,1.889478,1.4932401,0.62499774,0.13147983,-0.6893737,-2.7969503,2.0758615,-1.335038,0.9864901,-1.0752318
MB-4357,2.448922,1.7154592,1.8619024,-0.34719196,-1.4463418,3.5401685,-0.8826368,-2.106097,-0.46757597,-1.6442993,0.76893234,-0.8304427,-1.856473,1.6084275,-2.1182168,2.7538688,-0.12725717,0.08984088,0.58963335
MB-6286,-1.8942888,0.66532433,2.362392,0.32559428,-0.30843467,-0.6485431,1.218898,3.478166,0.03173416,1.4896309,0.423186,0.66532457,0.66169703,-1.971728,0.5858438,-0.8239548,0.36623353,1.5458834,1.0909989
MB-5134,-0.9421674,0.7041837,4.5878944,1.5809445,-2.145033,0.017519802,1.9483285,3.7379577,0.15504348,3.7185106,1.7825822,1.2860044,0.39132488,-4.3599477,-1.1067616,-1.4048107,-0.54177403,3.2503445,0.65546465
MB-4942,2.512506,1.2281092,-4.231925,-1.2687342,-1.705377,0.8562653,-0.59515154,-4.8846607,-6.6464667,1.3441945,3.881571,0.3062228,-0.94733423,-0.122572854,-3.4674778,6.189098,-0.25688282,1.9156088,-2.3394356
MB-6238,0.27905312,0.1931649,1.0760441,0.24509168,-0.51337934,-0.4904106,0.54459375,0.8769726,-1.4457159,1.7519099,1.4484949,0.64006686,-0.19205335,-0.62394756,-0.9630064,-0.56201744,-1.0826321,1.2843022,-0.56749606
MB-0127,4.069694,0.28197587,-0.64638424,-0.27280018,-2.202976,1.4066912,-0.17843057,-2.7097733,-2.2397006,-0.032453045,1.2078301,0.99059564,0.2016181,1.3165798,-2.4592822,1.911728,-1.7836194,0.24329075,-1.6339419
MB-7277,-1.1517903,0.25731587,2.1690617,-1.0965283,0.86154926,-1.5388157,1.2119439,2.7430124,-0.7703453,2.3478963,-0.9405099,-0.6240851,-0.2655024,-2.7228012,1.0909474,-1.5084344,0.60358226,2.345961,1.600585
MB-0060,4.4235654,1.0977275,-5.112201,-3.8936152,1.9528625,2.1995354,-2.4598365,-5.859916,-4.1845374,-5.389673,-1.3224888,-2.9443119,-0.9586784,6.1106687,-0.8714967,4.6850924,0.08404982,-2.1126685,0.07713639
MB-4721,-1.1994935,1.1340255,3.7918801,1.1309025,-1.1182402,0.14888294,1.279449,3.0616548,0.9923002,1.8544915,0.4063168,0.8211824,1.2117712,-2.0681372,0.3616819,-1.5862103,-0.8628109,2.3174527,0.28054562
MB-0882,2.6662798,0.19072425,-4.829978,-3.2856927,3.0968451,0.057910934,-0.16228577,-2.523261,-1.5122982,-2.8609023,-3.44913,-1.4063663,1.3738266,3.5912313,0.43395236,-1.5650604,-1.149039,-1.4337972,-0.06472051
MB-3271,0.3112397,3.6528418,-3.4828181,-0.65845436,-2.0557241,2.145454,-2.1833007,-5.590369,-6.68571,0.05565075,2.8998737,-1.1078901,1.1563689,1.4974214,0.016227506,10.226496,1.0741645,1.5650221,-1.9863149
MB-4746,1.2740741,0.12592496,-0.30701384,-0.9352565,-0.5290205,-0.36412942,0.4068814,0.09473476,-0.9617005,0.48810196,-0.3478945,0.3120958,0.956665,-0.37107086,-0.2182501,0.21832363,-0.5050324,0.52233374,0.019781984
MB-6069,1.7709167,0.6094819,1.1820824,0.5248035,-1.3383198,0.9809828,0.5610088,0.1704254,0.29459623,1.2058636,-0.062434196,-0.23891377,0.46002677,-0.70291185,-1.8203496,-1.1065544,-0.89613694,1.4151828,0.17028943
MB-6044,-1.0840266,2.3872313,-0.35081384,1.4120553,-0.453458,0.86779267,-0.25273842,0.54380774,0.5613438,-2.0167327,0.5968554,0.65415657,2.1227136,2.5831614,0.8767126,1.0384638,-0.8139176,-0.1834271,-0.97311634
MB-0601,6.4506273,0.79046416,-3.2498138,-3.2669284,-0.56216246,2.3909154,-0.49724942,-5.3446865,-2.926285,-2.141292,-1.8460853,-0.92963564,0.86111635,3.0165691,-2.194527,1.5967152,-1.8000445,-0.4681915,-1.0943578
MB-4887,0.92279625,2.1986854,1.6459254,2.230353,-3.4013553,2.2954938,0.05838187,0.469043,0.5737874,-1.4936535,0.34661227,1.2022426,3.427059,2.761764,0.4574091,1.8402644,-2.0518944,0.56990236,-2.6615493
MB-7111,1.8921089,3.8753757,-0.59785825,1.4390314,-3.3082845,3.3706605,-1.9259415,-4.507674,-0.06170581,-2.0415606,-0.9176005,-0.5608261,3.7816546,3.8941364,1.4874586,5.9421773,-0.8617616,-0.15815899,-1.7886297
MB-7174,3.925298,0.25682816,-2.3714015,-1.644263,0.33024573,1.1543233,-0.31595528,-2.1225898,-0.8276493,-2.7300158,-2.0727556,-1.0060399,1.0064305,3.1364036,-0.6627293,-0.38000917,-1.3336866,-0.69633,-0.39583668
MB-0317,-1.745828,1.4447567,1.5283525,0.6690802,-0.3223052,-0.35474026,0.15921661,1.600401,0.0072560087,1.7262176,-0.3951627,0.042139977,1.0782453,-0.37181038,1.5138184,0.43860096,0.252697,1.222794,0.320532
MB-4712,5.203445,2.8167818,2.4299245,1.7932842,-3.7300131,5.8853455,-2.2492294,-5.226424,0.5514475,-3.8912969,1.1147217,-0.5331034,0.10232524,5.957634,-2.4678996,5.207371,-2.256277,-1.0818926,-1.5273775
MB-7263,2.3272846,-0.39280337,-2.8132393,-3.134368,2.140563,-0.3137833,-0.65912694,-0.9944748,-1.6028165,-1.8891212,-2.4596534,-1.4557652,0.16325055,2.8783953,0.5896283,-0.7298887,-0.10207781,-1.3624222,0.8968074
MB-5582,-0.24808791,0.5164785,2.951113,0.753341,-1.7592661,0.07990138,1.4157865,2.311025,-0.6586166,2.837231,1.2723362,1.028854,0.45806774,-3.2922716,-0.92004025,-0.43679845,-0.39079243,2.4841914,0.26397923
MB-5420,2.8746223,2.582175,1.6726536,2.4757376,-4.2410674,3.5754364,-1.0642002,-3.5410862,-0.316393,-1.3057023,2.622324,0.508232,0.6606426,2.373749,-1.990796,5.158835,-1.3765624,0.44985172,-1.9109102
MB-2718,-0.40716144,4.4830923,-5.386007,-0.53851247,-0.24320553,1.9730102,-2.6240964,-6.9168525,-6.705092,-2.0158587,3.1189744,-1.5363717,0.30099693,3.846129,0.22447553,11.182784,1.4616404,0.7119113,-2.174179
MB-5268,-0.9739287,1.3384061,4.3442225,2.3166075,-2.2047126,0.48558226,0.88276595,2.6245706,1.6970016,1.8181384,1.2500145,0.97520036,0.80940396,-2.0048301,-0.043823674,-0.4857366,-0.47444338,2.031726,0.21239913
MB-5514,0.50541306,-0.29579872,-1.1908036,-1.5515959,1.0775627,-1.1380726,0.7490816,1.1082588,-1.492341,0.34885764,-0.7027101,0.6283387,0.6712413,-0.06466536,0.26679793,-1.448099,-0.60385257,-0.03457094,0.38735163
MB-7053,1.9329513,0.02258934,-0.75055015,-0.5857184,-0.2608804,0.21822008,0.32929257,-0.44930345,-1.6438278,-0.60475665,0.7469039,0.45639253,-0.35669222,0.9124124,-1.3923987,0.57132226,-0.49990255,-0.35422003,0.12669751
MB-5348,3.4186244,2.2018135,-2.5454879,0.4381525,-3.679158,1.9998249,-1.2746537,-4.5668206,-4.85483,-0.3457875,3.856308,0.27609164,0.6376549,1.5931396,-2.943103,7.0121484,-0.8901188,1.5190921,-2.8841743
MB-0901,1.122118,3.586027,-2.7195404,-0.272888,-0.552239,2.8744614,-2.333965,-4.99711,-3.9752822,-4.0162535,1.9791709,-2.1500232,-0.29561558,5.4806724,-0.2508595,7.725515,-0.05900897,0.7136733,-2.4291835
MB-5381,3.5884356,0.57909644,0.3005417,-0.34819788,-2.178151,1.7971816,-0.3507009,-2.0109165,-2.127985,0.40483597,1.3012147,0.14640132,-0.38492388,0.39372486,-2.6453416,1.6881471,-1.1882372,1.1814905,-1.1392882
MB-3153,-0.59882545,2.2611282,-1.8771411,1.0405943,-0.7542903,1.9514655,-1.2326965,-1.8361667,-2.8230991,-2.6710968,3.7719889,0.63116,-0.5110199,3.6269002,-1.4226394,5.4992957,0.017913386,-0.26169097,-1.7702037
MB-5366,4.3388195,-1.0085456,-0.8978071,-2.8742507,0.49071145,1.4159073,-0.24595568,-2.300581,-3.3239844,0.16212437,0.34615675,-0.4633041,-2.454815,1.1601378,-3.2108443,-0.016023114,-0.8178368,0.05487476,0.30571446
MB-7107,0.8769153,-0.11747293,-0.85282725,-2.295455,1.1286415,-0.51329553,0.030038059,0.42984274,-0.5351055,-0.37204996,-2.5717728,-0.54783416,0.5157244,1.1320393,0.4233474,-0.8488881,0.07969371,-0.8005531,1.4660399
MB-4697,2.4328449,0.2854722,3.3629878,-0.7050917,-2.4182565,1.0334827,-0.11435744,1.1001,0.38099363,0.42608085,-0.26606333,-0.22905669,-0.034300648,-0.39747918,-0.9193616,0.6146204,-0.31510815,0.86860406,0.6595486
MB-5070,0.6386628,2.7884176,-2.649045,-0.67594844,-1.0381563,1.3059003,-1.3403964,-4.725977,-4.925842,1.4179078,1.7927691,-0.1870639,1.2023127,0.20063485,-0.06036768,6.8948426,0.22787935,1.8158538,-1.6987774
MB-0598,3.9733744,0.5737458,0.58482474,-2.2713618,0.9026933,2.1888006,-0.20333466,-2.3196645,1.2554468,-1.8740152,-4.459037,-2.0910873,0.42167464,1.765069,-0.16364929,-1.5295931,-0.96486765,0.29237497,1.4199026
MB-4374,-2.9627917,0.623566,1.2097003,-0.031256557,1.0904732,-1.2411956,1.5599816,4.362739,-1.3549329,1.9681336,0.8245806,0.82884496,0.5381818,-2.3801324,0.5612011,-2.0292556,0.0751404,2.051131,0.5833916
MB-0264,1.6122432,1.5306095,1.1444824,0.9559366,-1.4113555,1.4837116,-0.33375606,-1.0591036,1.4527082,0.08607559,-1.3274789,-0.32112235,1.7305757,1.3500606,0.26760873,-0.41935152,-1.0569108,0.74238807,-0.19511786
MB-4688,5.278587,-0.5293432,-1.8220037,-2.7074633,2.3354757,2.3216999,-0.7320728,-4.067049,0.14105964,-4.0001044,-3.1130533,-1.9665952,-1.8450783,4.047516,-1.9375782,-0.96609896,-0.9261705,-2.0595605,1.4330184
MB-7003,-0.25599185,1.4756632,3.0003588,2.8361242,-2.935501,1.2079812,0.3502445,1.6560873,0.7358881,0.18468717,2.5144234,1.3680807,0.97872573,0.57651395,-0.84556705,0.9569358,-1.2352893,1.1952465,-1.3921297
MB-2964,1.2100482,2.3415673,0.45683438,0.9428353,-0.40607446,2.1530623,-0.53965586,-2.031378,0.8131069,-1.5623821,-0.7327774,-0.751468,1.3870713,1.4765297,0.28492314,1.2493677,-0.51385003,0.21000251,0.32334805
MB-6237,3.6286526,2.7914839,-5.671034,-0.7817989,-1.6632637,2.2981331,-2.2389064,-7.4676294,-6.4588957,-2.434509,3.597488,-0.71499056,-0.076399885,3.9955888,-2.5334654,9.253208,-0.22399694,0.2620951,-3.074773
MB-4977,0.5332552,-0.33069688,-0.069090314,-2.14259,1.1000688,-1.2118397,0.49344307,1.6274345,-0.49722221,-0.18530902,-2.0697799,-0.31376636,0.7466992,0.7238208,1.2446688,-1.0692177,-0.20071447,-0.6642293,1.2049186
MB-4329,-0.97302246,0.5402699,2.0218108,0.87328213,-0.8495381,-0.3354427,0.4993447,1.9725937,-0.7592928,2.1213977,1.5704298,0.49847245,-0.023024164,-1.4959179,-0.09504867,0.039190218,-0.104271054,1.6257964,0.014501099
MB-4001,0.34129027,1.5026689,1.5384058,0.39203882,-0.1196398,1.6297089,-0.32385892,0.6977789,0.99074405,-1.892894,-0.057154298,-0.28588766,-0.22464839,2.0857387,-0.1550841,-0.317738,-0.40532655,-0.2941835,0.39566466
MB-6163,0.5103987,2.0827847,0.6264954,-0.57506,1.1598697,0.43165484,0.798032,0.07356228,1.6656379,-1.0298332,-2.5410335,-0.3929702,2.2612622,-0.08084081,1.3378474,-1.4526174,-0.84913415,0.816748,1.1696717
MB-7151,-0.3276653,4.0748763,-5.1764708,-0.6423936,1.4449444,2.7551198,-3.315243,-7.4617167,-3.8186285,-4.9659505,2.0383968,-2.0028665,-1.5753235,5.9790516,-0.15207055,10.105893,1.6861329,-0.7974159,-1.3431036
MB-3341,-1.3176272,-0.41890126,0.38222122,-1.3801453,1.4416728,-1.04422,1.9679835,3.4610543,-1.3770819,1.5057751,-0.991392,0.91309375,0.9152865,-1.3179877,0.21639785,-2.9705555,-0.57922494,0.72003096,1.1704481
MB-5378,-0.8331878,5.11913,-3.0823386,1.4514186,-0.8305191,3.8055518,-3.6484926,-6.516601,-3.4638925,-4.9069686,2.9499428,-1.7196418,0.16142721,6.653091,1.0387741,11.564757,1.400913,-0.77788174,-1.9909462
MB-0458,2.348322,2.911881,3.018092,4.618517,-6.367108,3.5064502,-1.2166429,-1.6186457,1.3346932,-1.5156907,3.4768796,1.7984391,2.6915581,3.6480012,-1.497503,4.3018126,-2.790817,0.26516238,-3.5820243
MB-0197,2.809279,-0.029045537,-5.4169707,-2.9741898,1.6260948,-0.94323176,0.37333703,-1.5378101,-3.221543,-1.9193345,-2.5765562,0.15081495,3.1316664,3.033373,0.66951346,-0.22199817,-1.4853992,-1.2248188,-0.78238297
MB-3002,-0.857598,1.0321364,0.14413127,-0.55072486,0.16622786,-0.49815175,0.8151756,1.406357,-0.76646864,0.6664277,-0.15378445,0.32577285,0.7756328,-0.4995015,0.19847384,-0.33313423,-0.2035515,0.84635234,0.50298655
MB-0411,-0.37797746,1.9768758,1.456381,1.3888454,-2.270344,0.89757705,-0.123448126,0.9187628,-0.71688926,0.12769547,1.4689201,1.0856409,2.5200946,1.2698165,0.91103864,2.3759604,-0.9732352,0.53229046,-1.0327171
MB-0230,4.142309,0.3619492,1.5944383,-0.12363064,-1.2827561,3.1285226,-0.5098448,-2.5921135,-0.5410609,-0.9356904,0.6187354,-0.44437134,-1.9966607,0.8245672,-3.459658,0.98474145,-0.8816357,0.6715346,0.4400408
MB-0188,2.1932864,0.20883441,0.31307894,-1.2562857,0.32782698,1.0567693,0.2795791,-0.23895575,-0.11129496,-1.3951384,-0.97444665,-0.19016564,0.046628404,0.74672073,-1.2421155,-0.43938774,-0.57227474,-0.7063003,1.5200325
MB-4911,-0.26675436,4.55222,-4.460546,-0.6159585,0.36992967,2.707045,-3.6537967,-7.6196017,-5.0609555,-4.0118027,2.5280693,-2.5520368,-0.79602736,5.5451436,0.650463,11.075459,1.3818679,0.26174933,-2.3402252
MB-0428,2.4965854,0.065825,-0.30742386,-0.29870024,-0.96378225,0.8041656,-0.365353,-2.1583369,-1.7070689,1.4156522,0.36931255,0.21153516,-0.17955616,0.72016597,-1.6631024,0.6371322,-0.947769,-0.257641,-0.00074502826
MB-5068,-1.5847646,0.5879151,1.4471948,0.3000899,0.18648432,-0.91834277,0.9941718,2.9192426,-0.431375,1.5832419,0.6572909,1.0126991,0.5361749,-1.4372718,0.579363,-1.3269798,-0.21122655,1.1432385,0.58793384
MB-5518,3.017844,-0.0008945018,-2.8601763,-2.943465,2.2593956,0.6994696,-0.2147411,-1.9403079,-1.3256356,-3.4695544,-2.2254574,-0.7064511,-0.16701284,3.363503,-0.5949453,-0.13504691,-0.427467,-2.0952675,0.8326757
MB-5185,0.86185825,0.9280239,1.7389988,-0.5568697,0.32101792,1.1131037,0.09857464,0.47085127,-0.08862942,-0.06810961,-0.23590675,-0.43813372,-0.8294783,0.25931972,-0.64639544,-0.6990649,-0.43180174,1.0226868,0.4399115
MB-4836,3.7946222,2.9441657,0.5257128,-0.8387765,-1.1654197,4.2810345,-2.1021016,-4.244933,0.2669069,-3.9505236,-1.4597445,-1.992167,0.26600373,5.38369,0.030558757,2.749798,-1.2986243,-0.36395192,-1.2379087
MB-6125,0.9924761,0.94608533,-0.46364063,1.08694,-2.708036,-0.058316614,0.32802504,-0.07342443,-2.1136155,1.5726507,2.9534085,1.8849741,1.1512663,-0.454999,-1.4796675,2.0914237,-0.9770499,0.89809036,-1.6197644
MB-2932,1.5595162,0.9604427,-3.6057594,-1.7076259,1.9130759,-0.23936096,-0.27170992,-1.7392797,-0.7724863,-1.7372704,-2.7099392,-0.92101777,1.8795207,2.7337947,0.66545296,-0.7972139,-0.9698996,-1.0309386,0.19909501
MB-0095,2.4301438,-0.10835399,-3.773896,-4.4456153,3.396109,-0.8080516,0.49407673,-0.38068065,-0.95207804,-4.3436055,-5.5638723,-1.484024,2.1568024,4.1147623,2.4583337,-1.523475,-0.5039609,-2.2210693,1.2600182
MB-2564,-0.39476708,0.49446982,3.4065733,0.77440304,-1.4209646,-0.15827206,1.2384951,2.1945388,-0.044465046,3.134995,0.9966674,0.7811603,0.17837545,-3.226517,-0.57270664,-1.0371016,-0.54049176,2.674685,0.3868784
MB-7155,2.6036494,3.5349894,-3.9092515,-1.7471378,-0.08023596,2.541468,-2.2401228,-7.176432,-5.3688884,-1.6583728,1.3206191,-2.0851169,-0.2782649,3.6921556,-0.7015638,7.7279134,-0.040844277,0.86915135,-1.6256385
MB-4603,-1.7411532,2.779153,3.14394,0.8031737,-0.92666364,1.5485222,-0.12905282,1.3257962,0.04581923,0.9264626,0.9727687,0.05625532,0.35203508,-0.4659171,0.37262923,0.7785811,-0.43209004,2.3957133,0.070680305
MB-4173,-1.458118,0.51452243,2.8938925,0.8538678,-0.6056688,-0.5120213,2.1402671,4.100052,-1.214661,2.8734202,2.1844425,1.1287782,-0.05522356,-3.45195,-1.1295601,-1.9148378,-0.55657375,3.0666242,0.19052741
MB-0578,2.1556156,3.234649,4.330224,5.418541,-6.689745,4.084029,-1.1682417,-1.2210492,2.6309545,-2.0921078,3.505128,1.9373386,2.8621013,4.098663,-1.3604829,4.036716,-3.1226404,0.24673468,-3.6089208
MB-3272,0.93624675,0.7435076,-0.40552625,-1.7849932,1.3696647,0.44484624,0.22752571,0.07898803,-1.0570136,-0.92456335,-1.3719721,-0.7362917,0.97506005,0.3141866,0.41743347,-0.15258552,-0.42615038,0.39790887,0.92584926
MB-4695,-0.38312086,0.5331477,2.5785449,1.0521412,-1.8267455,0.4140965,0.7293839,2.0848048,-0.38465634,1.4291971,1.5328364,1.2857337,0.5090725,-0.7017038,-0.5120419,-0.19032232,-0.7133058,0.90447885,-0.559978
MB-0455,3.5659442,-1.4501226,-5.222195,-3.7849073,0.2827506,-1.6918427,0.23424882,-1.3121431,-5.8826685,0.93004066,-0.6036099,0.17308939,0.86625713,0.28943858,-1.5288242,1.3909816,0.0022746027,-0.49211073,0.16078001
MB-2863,-1.2597721,0.8490289,2.1429698,0.79923457,0.05181445,-0.4418724,1.9749296,2.742055,0.042886145,2.0678504,0.41662812,0.74178606,0.4329282,-2.9262602,0.095587574,-2.3521814,-0.36916095,2.6610324,0.23346502
MB-0346,7.023274,0.73871684,-1.1039152,-1.1115046,-0.4239149,4.457713,-2.043746,-7.604106,-1.7626337,-2.308388,0.76859087,-1.3512268,-3.723629,3.5681362,-5.4488673,2.8987856,-1.0097358,-1.107212,0.6853963
MB-4709,-1.6668831,-0.103971586,1.991259,0.55111146,-0.10716935,-0.35370895,1.7734463,3.437975,-1.3360922,2.5434763,2.3796961,1.3715183,-0.4365342,-3.0749311,-1.4478105,-1.6558764,-0.45724446,2.5056334,0.10342128
MB-5057,0.63756275,3.0386062,-3.7264287,0.12637031,-0.9824911,1.6486815,-2.007639,-5.136163,-5.3840528,-1.8800324,3.8451312,-0.27310222,-0.36515912,3.7888968,-1.1966606,8.413779,-0.07345161,0.45866197,-2.703984
MB-4724,7.159361,0.54034495,-0.6969794,-1.2581818,-1.1270328,3.7636611,-1.6878638,-7.139494,-2.772581,-2.3320053,1.6839736,-1.3332937,-3.6367958,3.0217566,-5.1155305,4.224356,-1.2076204,-0.21990716,-0.19824657
MB-6217,-0.05601696,-0.46327478,-1.1072385,-2.1229272,1.6906815,-0.51158565,0.17123404,1.5324625,-1.2581512,-1.1946256,-1.3370317,-0.21195549,0.22626004,1.329145,0.63609606,-1.126194,0.03716951,-0.46032578,0.7646344
MB-7160,1.0016901,3.1720989,-0.49007446,0.6307913,0.3913381,3.7830684,-0.81479645,-4.268816,0.10164376,-2.32837,-0.85561955,-1.0413343,0.43310428,2.928938,-0.19925699,2.4219275,-0.74279565,0.5099575,-0.818325
MB-4548,4.454959,4.090582,-2.4844005,-1.3877153,-1.0171963,4.8065896,-4.0586247,-8.633258,-3.598381,-4.3666453,2.6290562,-2.8175461,-3.3701987,6.469991,-2.5180001,8.921249,-0.24332368,-0.585632,-1.4630083
MB-5222,4.1776276,0.49482012,-4.415024,-1.7725828,-2.4750342,-0.26818067,-0.57271826,-4.719398,-7.7870584,2.1301146,3.7169662,0.6648311,0.05469015,-0.23075208,-3.3409686,6.0325003,-1.1498015,1.7700536,-2.502686
MB-5422,-1.3299729,1.3517921,3.232623,1.1191912,-0.763571,0.6537362,0.5885289,2.6941094,1.7532624,0.48462424,-0.44556612,0.5155227,0.94632536,-0.06931307,0.6609199,-1.3080213,-0.253096,0.6502416,0.715835
MB-0384,-0.3841978,1.1515388,0.37661177,-0.8400532,0.51401013,-0.53203946,0.3829953,0.9933395,0.12312994,0.50080526,-1.7254395,0.027430058,1.9770323,-0.10477947,1.6807525,-0.6700657,-0.6300687,0.4173415,0.6671683
MB-5335,-1.4033276,4.640451,-4.6104364,1.0224161,0.15169086,3.3921134,-2.5569532,-6.684766,-3.9005985,-3.3491974,2.9694307,-0.75007176,-0.2273997,4.9121037,-0.3753408,10.146141,1.120339,0.20226711,-2.3552234
MB-0157,4.446416,0.8909225,-4.8230357,-2.215691,-2.8694015,0.5336138,-0.076393425,-5.802289,-8.770321,4.2676396,3.2426004,1.3079191,0.6976735,-1.5272381,-3.9260404,5.8932905,-1.0295479,2.155847,-2.6231978
MB-5324,-0.31861287,0.6564096,3.7731092,1.719948,-2.49417,0.19456393,1.0410233,2.6635227,-0.026181407,2.7096996,2.1276312,1.2361201,0.5899465,-2.3779597,-0.7762419,-0.45015252,-0.8834681,2.3810177,-0.4342299
MB-5150,-0.6651871,0.79631746,1.3910774,0.704439,-0.51036865,-0.2934231,0.6706682,2.0800111,-0.061920352,0.6922366,0.72914016,0.98974395,0.90103394,-0.254837,0.24933049,-0.82387394,-0.7370682,0.65096414,0.022492137
MB-7073,3.8933265,3.709299,-2.3832824,-0.7303548,1.6268979,4.895357,-2.1405618,-8.685248,-1.2369055,-4.800433,-1.2225355,-2.3241317,-0.92708915,5.8521714,-0.87105083,5.7668896,-0.30263987,-1.6694187,0.26027876
MB-0136,-0.7204399,0.37108582,-0.7735639,-0.2389017,-0.35518336,-1.0656831,0.9308668,1.2999318,-2.3297951,2.0729754,0.69428355,1.3135759,1.4900984,-1.6169484,0.17327663,0.4104402,-0.22243926,0.88102573,-0.1395611
MB-0163,-0.52788776,4.368642,-5.819847,0.10224216,1.335583,2.4127958,-2.7641351,-7.408541,-4.1534643,-4.551408,1.857028,-0.9396988,0.3562171,6.109457,0.8030517,9.470788,0.99067694,-1.8168159,-1.6306616
MB-4834,3.495423,0.8936506,-5.380916,-2.6988149,2.724432,0.81419945,-0.9479793,-3.151871,0.28471416,-5.6008797,-4.2254915,-1.1644119,2.2325118,6.150475,0.7788489,-0.43185735,-1.207366,-3.3169093,0.16670996
MB-5465,2.439899,2.1669836,-3.0282273,-0.7925083,-2.6887255,3.1131775,-2.9770923,-6.0749907,-5.4602933,-0.67813694,2.5131404,-0.8159794,0.1917921,3.4122782,-1.2023531,9.770408,0.9225062,-0.6326471,-1.502996
MB-5330,-2.690602,1.4632595,1.0576627,-0.86633486,1.6372163,-0.36954758,0.41600704,1.8756838,-0.6452504,0.6309897,-0.6801618,0.024078488,1.0563625,-0.49302462,2.2848246,-0.41903794,0.13154118,1.4450629,0.37736124
MB-0489,5.9095416,-0.39308804,-6.400705,-2.8437815,-5.770385,-1.3870449,-0.5210048,-6.4498925,-13.022157,7.462027,7.255641,2.2032344,-0.21670282,-3.6455636,-6.004598,8.416702,-1.6940188,4.070105,-5.034529
MB-0107,6.8335214,0.3650077,-4.903962,-3.4554706,1.6026539,2.6658208,-1.7700436,-5.0130033,-0.9379216,-6.145646,-3.3806174,-1.6799588,0.22209027,6.7356973,-2.2729034,-0.07921143,-1.8747816,-3.4409158,0.7582892
MB-5593,7.149089,2.3921878,0.8864758,1.2786069,-3.2982128,5.6832466,-1.5589039,-6.2170897,0.55545634,-3.62097,1.1584944,-1.0901364,-1.4699676,4.1043086,-4.8982506,3.6914365,-1.9514778,-0.368386,-0.81061924
MB-6245,-1.5627378,3.8143823,-5.554569,-0.06992626,0.8608339,2.1224248,-2.8737879,-5.8661485,-4.5926256,-3.9293542,2.8390834,-0.5676918,0.051425673,6.04096,0.7321913,9.1889925,0.9905105,-1.2459146,-2.8407967
MB-5329,0.6007331,1.9236914,2.1884096,0.69181406,-1.4390553,2.458523,-0.0074726194,-0.70819783,0.08561998,-0.95847505,0.46022964,0.7803981,0.87514156,1.4805992,-0.39854026,1.9654024,-1.0622561,0.33923638,-0.59401363
MB-6346,0.07190623,0.4346578,0.28083372,-1.345406,0.684976,-0.6372573,0.7658976,1.3273065,-0.6010961,0.8470049,-0.60167086,0.08560978,0.5581446,-1.1428354,0.15173623,-1.3840722,-0.2276755,1.1793193,0.8485821
MB-0200,-0.2650577,5.51572,-4.9434266,0.28454536,-1.2281585,3.6842484,-4.3561325,-8.457005,-5.7807326,-3.8038437,3.0580316,-2.4275503,-0.058780305,6.953942,0.45010725,13.428877,1.2703958,0.2500141,-2.8484528
MB-0354,3.1999304,-0.41163582,-5.741102,-2.3145757,-3.4490502,-2.1574028,0.37555617,-3.7428806,-11.091354,7.1323323,4.643568,2.5474432,1.5236076,-3.7524526,-3.2308056,5.6501603,-0.7698092,2.76934,-2.9451065
MB-5474,2.0149117,2.0340025,-2.1836693,-0.20148535,-1.6016585,1.497564,-1.4474418,-4.618463,-4.3945045,-0.060814768,2.5693197,0.16669494,-0.14991549,1.9859946,-1.1475736,6.391477,-0.53847814,0.58776623,-2.113331
MB-3328,-1.1679549,0.17328818,0.12774646,-0.7815967,0.874966,-1.4866302,1.0093806,2.0444334,-1.1422149,2.3700597,-0.71118075,0.17748597,1.0792032,-1.8028706,0.8109649,-1.5206033,-0.12509468,1.1226276,0.9762615
MB-6018,0.72983515,-0.06296596,1.3696543,-0.40508685,-1.4336283,-0.5457477,0.8466106,1.1315508,-1.482548,2.5785208,0.8317497,0.36385822,0.022017315,-2.0362859,-0.9563259,-0.28637034,-0.4498704,1.7427992,-0.13131285
MB-0599,0.37055638,1.568234,2.1110802,2.8691914,-3.8520808,1.266513,0.2605222,1.4883522,-0.6337747,-0.45809773,3.4158957,2.1172695,1.2503242,2.0386899,-1.435285,2.5846992,-1.360548,0.19146298,-1.8072071
MB-4591,2.4415107,0.3927472,-3.614989,-2.78278,2.205767,-0.009409778,-0.5395329,-1.9551805,-0.9442272,-2.4021537,-3.3410373,-1.5519302,1.1247449,2.8902993,0.6421428,-0.97963005,-0.47845817,-1.0078846,0.6174247
MB-0378,5.915047,2.0582242,-0.14650947,0.31071818,-1.4479207,4.6676173,-1.8275809,-6.8583,-1.2438459,-2.7113414,0.88209635,-1.46967,-2.1050398,3.2304337,-4.1669908,4.1563325,-1.0899584,0.21619305,0.018889654
MB-3548,0.37166086,0.29278493,2.5961058,0.09331359,-0.5741414,0.38582626,1.0681367,2.117092,0.41901436,1.062353,0.3106828,0.21046853,-0.13988873,-2.0486505,-1.020671,-1.3623106,-0.2780304,1.5562617,1.2951202
MB-0226,0.7810687,0.8181385,3.9568326,1.6754944,-2.1445298,1.0493855,0.95312077,1.5957675,1.416231,1.599518,0.5907812,0.53673977,0.33712468,-1.6895155,-1.1183966,-1.2537557,-1.142308,2.0197997,0.219877
MB-7193,3.0715911,-0.07012446,-4.223309,-3.4591587,3.2801435,-0.1018555,0.24368033,-1.328816,-0.17480984,-4.4647865,-4.7815104,-0.8660853,1.7925718,4.287464,1.3040878,-2.3621006,-1.0949974,-2.7188241,0.6174213
MB-5622,2.3131897,1.3605282,-3.7285817,-1.6771829,2.3167639,0.18163475,-0.2522669,-2.7018216,0.47466627,-2.4670153,-4.1646175,-1.2387722,2.470046,3.2538228,0.951188,-1.5544169,-1.0880508,-1.5771519,0.83300364
MB-0171,-0.04908026,2.284345,3.638952,4.2083373,-3.760552,2.2459579,-0.034342617,1.2440797,1.8343531,-0.6904102,2.605258,1.3994217,1.8407332,2.0453157,-0.68987054,1.3917962,-1.9459767,0.84512025,-2.2699645
MB-7286,2.9599786,0.4304853,-2.8275552,-2.7019553,2.098678,0.19842288,-0.5376433,-2.0657158,0.0559626,-2.7958784,-3.6466796,-0.943315,1.4522898,3.4022515,0.72342896,-0.9974863,-1.0398932,-2.0552697,0.91021156
MB-4974,2.9458334,1.5922859,-2.562377,-0.58661836,-2.421058,1.6750458,-0.40575832,-3.887149,-6.3293486,0.29414266,4.460208,0.392425,-0.6820673,1.7469089,-3.6417832,5.638847,-1.7020202,2.461293,-3.817287
MB-0452,2.0506525,-0.21128924,-4.587649,-3.8570414,4.1864448,0.12148839,0.24554056,-1.2754996,-1.591689,-4.651823,-3.8698742,-1.1869433,1.4283307,4.621862,1.39833,-1.7944342,-1.190871,-2.0654693,0.2651514
MB-2846,2.8644993,2.0524218,1.3503827,2.086158,-3.4720333,3.1804934,-1.5667415,-2.7925339,-0.0965957,-2.318702,2.4498012,0.21499106,0.20549002,3.8517385,-1.9215701,4.4541645,-1.486054,-0.04658974,-1.8682398
MB-5195,3.705862,-0.3150772,-1.039198,-2.5442414,1.676153,1.1707437,-0.15554114,-1.6469159,-1.5864861,-2.2732685,-1.8650438,-1.6773074,-0.58793795,2.200124,-0.70129377,-0.47040474,-0.7896239,-0.06371262,0.59184504
MB-0302,1.3774467,0.39423,-0.8050649,-0.17313331,-2.528398,-0.042087767,-0.26276296,-1.0029582,-2.647538,1.8831685,1.5306515,1.229351,1.2898504,-0.01857311,-0.957253,2.515006,-0.69318783,0.69573104,-1.4187931
MB-2712,-0.08703575,-0.08954267,0.7485973,-0.16160755,0.18386044,-1.0867252,1.8337784,2.604875,-2.1092825,2.1953228,1.7296493,0.5642346,-0.29758367,-2.3048902,-1.5059123,-1.6793637,-0.7474081,2.0120502,0.06954471
MB-4896,2.9385884,1.817209,0.43450373,0.46041834,-1.4331613,3.174019,-1.6892064,-3.5146375,-0.7929493,-2.2699118,0.4158697,-1.0458089,-0.14646107,3.2417917,-0.87434864,4.379445,-0.2880937,-0.30200747,-0.34091404
MB-7084,0.93862677,3.9995124,-3.0090413,1.6548889,-1.2618339,4.1907396,-3.7001097,-6.6040487,-2.7351303,-6.5101314,3.7665665,-1.1703178,-1.1227827,8.259365,-0.91642284,10.962699,0.5713163,-1.9297783,-2.5703614
MB-2772,2.9843826,0.6224264,-4.313544,-2.5604668,0.4986217,-0.2320832,-0.077417836,-2.2396264,-3.524101,-1.4080621,-1.340619,-0.15655482,2.082372,2.7010877,0.010000758,0.85813546,-1.4432347,-0.84987587,-1.1226579
MB-5221,-0.6837841,1.261856,3.3647537,1.2419298,-1.1223232,-0.45660612,0.9841054,2.0867677,0.4325616,2.8126633,0.3361217,-0.40187544,0.2457645,-2.9149022,0.0382249,-1.1080374,-0.2932167,3.158518,0.76829046
MB-5572,4.479957,0.057761714,-3.8093636,-1.7427831,-3.9274614,-0.40142354,-0.2573852,-4.708685,-9.315428,4.928512,5.3117704,1.21814,-0.86259645,-2.6803224,-4.895308,6.350421,-0.9461228,3.2607925,-2.8976748
MB-5045,1.6733944,1.6741481,1.2718033,0.42484158,-1.3115864,2.5237765,-0.75286394,-1.1092312,0.36831784,-1.9328626,-0.33152315,-0.86627793,0.63620156,1.8295487,-0.2559519,1.8931444,-0.3459115,0.7220022,-0.4079116
MB-5093,1.7108872,-0.16009547,-2.6425276,-3.0708547,2.024912,0.075201735,0.053369775,-1.2311727,-1.3454747,-1.0788665,-2.9976513,-0.34315658,0.94340664,1.3068649,0.6652527,-1.2509965,-0.27888754,-0.9797381,0.5747746
MB-5044,2.4262097,0.55650955,-3.8093994,-1.9402299,1.7273893,0.17650212,-0.39395028,-1.8702202,-0.6892958,-4.352304,-2.336369,-0.22598511,1.7175902,4.7808175,0.9888885,0.25801557,-1.2217948,-2.6487365,-0.4367804
MB-3028,2.8498402,0.1429964,-0.4111889,-0.5644963,0.19717033,1.2007486,-0.4024106,-2.4536114,-1.4537344,-0.13504508,-0.47961432,-0.5186526,-0.6365948,1.7342315,-1.2242326,0.6158369,-0.9842499,0.070184246,-0.016829183
MB-0658,1.9046198,2.2544365,-4.2076216,-0.7714235,-1.5128801,0.44637147,-0.6171938,-4.2090826,-5.964005,1.2111683,2.4711988,0.031702965,0.78040767,1.2545053,-1.8152754,5.8998322,-0.28764638,1.3723967,-2.3392913
MB-7005,1.2288004,-0.09813546,-0.39127016,-2.0629697,1.6192877,-0.71567714,1.0310585,0.7326109,-0.68871397,0.12829852,-2.0165427,-0.098168105,0.86506045,-0.37462965,0.47803807,-2.1718898,-0.9477019,0.4439314,0.903415
MB-5228,1.0574999,-0.0575217,-2.1273434,-2.8098848,2.526537,0.61202353,-0.8099428,-2.1988666,-2.1882854,-0.39865583,-1.7638404,-1.8214616,-1.7300155,1.5936954,-0.4599062,0.19344874,0.6491518,-0.12810028,1.0832081
MB-0314,4.8044276,0.5337642,-0.17802176,-0.6381321,-0.4715231,3.2872694,-0.46851,-4.8064284,-2.0747118,-1.0763433,1.5763191,-0.2157242,-2.9363008,1.8367362,-4.714876,1.8992193,-1.2446547,-0.073465355,0.13079667
MB-7293,0.042519502,0.25120342,2.4616253,0.3060623,-1.5770515,-0.37643784,0.649489,2.560503,-0.16909468,2.016103,0.2968123,0.2853309,0.52557015,-1.8220104,-0.36117256,-0.89355725,-0.24996182,1.6579095,0.50942445
MB-5602,3.7667131,1.4857755,-3.6621346,-1.0767123,-1.355613,1.937546,-1.5079195,-6.1619306,-6.0945983,-1.7554803,4.2279396,0.11228134,-2.18574,4.226012,-3.624825,7.7451153,-0.31518543,-1.6938708,-1.1487637
MB-5406,2.5641284,0.6509752,-2.780753,-2.7710905,2.183406,0.6331456,-0.3002805,-3.0450811,-1.6880734,-1.7067158,-1.9749465,-0.99024284,-0.23367491,2.4460196,-0.11708135,0.007817671,-0.48105395,-1.4692562,0.88288474
MB-0884,1.5233567,1.2639717,-8.43108,-5.256967,6.5767994,-0.53877634,-0.38744733,-4.395993,-3.295478,-5.3215494,-4.7051325,-2.304608,1.0268327,5.9661565,2.1139982,0.36166316,-0.17826238,-3.2565656,1.1550252
MB-7112,1.042735,-0.26395267,-2.0921166,-1.978385,0.4316724,-1.3721261,0.48030478,0.41281757,-2.6815653,1.1928843,-0.32867378,0.37784332,1.1204242,-0.5578429,0.12982109,-0.5444937,-0.4456513,0.27505103,0.08132685
MB-2939,3.5518305,-0.28818458,-1.836987,-2.895643,1.7760048,0.40666404,0.064964175,-1.0952284,-0.6236989,-2.1034932,-3.386947,-1.0828722,0.36192632,3.0442204,-0.416533,-2.0581214,-1.0493748,-1.4686471,0.9876441
MB-0541,1.5359604,-0.067089275,-2.0229084,-1.3812649,0.5982603,-0.8158925,1.046025,0.3838878,-1.186759,0.49223623,-1.4314,-0.013634309,1.6977651,-0.7911453,-0.28650227,-1.8349006,-0.638918,0.7558154,0.23396495
MB-7186,1.7258875,0.4499439,-4.9619155,-2.8404517,3.276743,-0.07530457,-0.40432417,-1.5985454,-1.3596128,-3.8318245,-3.844871,-2.0505097,1.3725533,4.293737,1.0994155,-0.4995814,-0.21672088,-1.6823232,0.3457063
MB-5230,-0.01907172,0.39121252,1.2611489,0.20581305,-1.2272738,0.045723107,0.4481169,1.2058867,-0.6839045,1.5752976,0.7234481,0.8104948,1.0054892,-1.1704147,-0.07167201,0.18392873,-0.4140097,1.3761644,-0.23121864
MB-5059,-2.3549864,0.30811784,3.331104,1.0687432,-0.93896705,-0.5841914,1.6006234,4.0677495,-0.357925,2.9375207,1.2603098,0.99568564,0.28980467,-2.8334079,0.26268762,-1.1782296,-0.024017915,2.5631835,0.34454072
MB-0656,2.169463,3.1922474,-2.9681396,1.9204915,-4.425401,1.947942,-2.5122786,-5.859128,-5.52069,-0.48939773,5.90501,0.50735563,0.013791688,3.5883493,-2.574663,9.933491,-0.5647723,0.5348289,-3.5882065
MB-6059,1.0495658,2.0622969,-1.40067,1.2761664,0.35543567,1.5158277,0.17820314,-1.8633792,1.2431903,-2.3048234,-1.7471123,-0.2396068,1.960427,2.295211,0.19991758,-0.43660688,-1.2029502,0.5034178,-0.8708931
MB-3062,3.6503034,1.7572917,-5.67166,-0.7696339,-5.123832,0.94222075,-0.70249385,-6.7122626,-9.283395,4.1158752,5.996602,2.2735014,1.1678821,-0.99641895,-4.909032,8.867789,-1.3751101,2.0481172,-4.3640804
MB-0393,1.2094171,1.0959285,-0.19917828,0.35237956,-2.0758164,0.817718,-0.38496786,-0.35208592,-1.9662359,0.65053034,0.596216,0.41429597,2.1378515,1.509083,0.07195742,1.9215791,-1.1461406,0.912159,-1.5276558
MB-3379,1.1228901,1.158598,2.1208706,-0.14364898,-0.42713523,0.6195646,1.0021515,1.0637735,0.9954644,-0.17281863,-1.0480167,-0.21193811,0.97764605,-0.7328086,-0.31504244,-1.5333738,-1.190953,1.6973225,0.6443489
MB-4601,3.9613287,2.735094,0.061590962,0.2853588,-1.0323383,4.2119827,-1.2851732,-5.3613787,-1.7642418,-2.7460196,1.04583,-1.2849478,-1.215327,4.0955763,-2.1951709,4.2060647,-1.363312,0.4486782,-1.4713339
MB-5310,0.53897387,1.1032002,0.89269894,-0.27763677,-1.1498551,-0.1423599,-0.46276653,-0.27809855,-0.8832166,1.6867595,0.033616,0.072160944,0.822608,-0.9755886,0.33053258,1.3893228,0.07979452,1.3930932,0.23228678
MB-0412,4.334469,0.1318296,-7.4972486,-4.5575304,4.0574894,1.1604264,-0.83309746,-3.2255988,-0.36076543,-7.607302,-5.8059626,-1.8209789,2.8591313,6.797672,1.0687381,-0.31321377,-0.51574004,-4.317507,0.9440217
MB-5527,4.491965,0.7215508,-4.425615,-1.6398525,-3.0283618,0.027061831,-1.0251529,-5.6299405,-8.085102,2.6340103,4.456999,0.3015045,-0.95446295,-0.59836066,-3.9602678,7.0498834,-0.7268914,1.9140083,-2.4024336
MB-3007,0.49433336,0.5305065,-1.5828263,-1.5144398,1.6244464,-1.0314728,0.43364024,0.5215723,-0.47131202,-0.55983156,-1.9729614,-0.24272734,1.646586,0.77878284,1.5270265,-1.2967198,-0.34538805,-0.5653644,0.97977126
MB-2951,0.34899163,1.1101727,2.5938294,2.0832524,-2.7825153,1.2261742,0.41208136,1.5726819,1.4467257,0.73867524,0.39612824,0.86134154,1.7481204,-0.6202172,-0.49150273,-0.28258425,-0.7094155,0.7820009,-0.14588743
MB-7027,4.4800797,0.23563638,-2.7372096,-1.6128783,-1.4744779,1.872101,-1.0593797,-4.8838434,-5.21868,0.12867263,1.6272695,-0.056892842,-0.94013745,1.860054,-3.067989,4.228216,-0.9398307,0.46293014,-1.6573187
MB-0500,-0.9595468,5.238338,-3.887792,0.094190806,0.18710367,3.124171,-3.7905655,-7.254321,-4.1732206,-3.5785038,1.394803,-2.5306287,0.75167626,5.37362,1.6822656,11.075983,1.2461083,0.6164171,-2.0434046
MB-3064,2.307454,2.1544187,0.6094939,1.7979674,-2.9566216,1.6602155,0.5977498,-1.0260857,-0.6955337,-0.5270472,1.7526628,1.4237581,1.5328158,1.623174,-1.4603997,2.2262025,-1.9063842,0.38804626,-1.9908085
MB-2792,2.6678717,-0.64644504,0.26675352,-1.2995968,-1.2668396,-0.009837221,0.063970506,0.33416733,-2.2980592,1.8312134,-0.048997894,0.1823902,0.36592603,0.05061443,-1.0958242,-0.64749634,-1.1411624,1.0128957,-0.44561645
MB-4375,-0.6642198,3.9033482,6.1857977,3.7932441,-3.610512,3.8889303,0.21042004,0.9622177,1.9781295,0.29140663,1.4926331,0.24394473,1.3572806,-0.06251521,-0.120764576,1.7284905,-1.2972043,3.1058614,-0.66565824
MB-4908,3.3824947,-0.23114641,-2.0181131,-3.342111,2.3700817,0.26088932,0.038593724,-0.55913776,-0.12567589,-3.3976505,-3.582112,-1.2017462,1.0721048,2.7273595,0.1981808,-1.9598229,-1.049092,-1.5358936,1.5621965
MB-5628,1.5820873,0.38584325,-1.7174189,-2.449812,1.8678164,-0.12998316,0.48483998,-0.22089379,-0.6039683,-2.3202379,-3.429989,-1.3795067,1.1632724,1.3858666,1.3335651,-0.3797446,0.15594417,-0.43583024,1.2859117
MB-3381,-0.9469483,0.715115,0.5540229,0.7408653,-1.6724974,-0.49379715,0.46842867,1.1303664,-1.5527105,3.2260673,1.4171162,1.1158893,1.122812,-2.425332,-0.3957626,0.5580802,-0.15173122,1.9236991,-0.4058368
MB-7011,6.3000817,0.55056804,-6.874285,-4.9838214,3.4711752,1.7348249,-1.0884824,-5.52633,-1.5771378,-6.4157352,-5.174279,-2.155008,1.7324903,6.5763593,-0.20608741,-0.31168908,-1.6911924,-3.456212,0.72619945
MB-4640,5.4152904,0.058791846,-1.4152943,-1.7985368,-0.5901985,2.6873877,-0.85809845,-4.3320136,-1.5275131,-1.1952881,-0.14683443,-1.04251,-1.5236187,1.4097084,-3.6829078,1.1076734,-0.8544865,0.197407,-0.0558782
MB-0666,0.9388407,-0.37491107,-1.3187189,-1.2249367,0.9910046,-0.3204666,0.38159585,0.69037867,-1.7593769,-0.39936128,-0.19227266,0.48653197,0.1682623,1.4745803,-0.42869663,-1.1138374,-0.6961627,-1.001777,0.6936283
MB-4059,-0.14667132,1.3056582,3.0691688,1.821533,-2.8962767,0.89512736,0.4066667,1.299954,0.166796,1.6501104,1.7448443,1.1380494,1.1589913,-1.2835809,-0.41089156,1.4019799,-0.6687101,1.8797716,-0.6943163
MB-7150,3.185486,0.3830325,-3.5667834,-2.362128,2.7463667,0.33439124,0.5728945,-2.2611656,-0.1776323,-3.1004522,-2.6043072,-0.05838351,0.7757717,2.688442,-0.7830411,-1.6730963,-1.3077986,-1.9715915,0.8586736
MB-7262,7.227472,0.47105813,-0.9967234,-1.9916804,0.4890465,3.928457,-1.7637312,-5.6013737,-0.40273514,-4.926098,-0.9891937,-2.0934062,-2.5403688,5.0545673,-3.4099154,1.5360464,-1.0965695,-2.4877813,1.2634563
MB-0133,-0.46877506,1.3382149,4.617772,0.47886348,-0.8847245,0.84360504,0.7704863,1.9072711,1.028856,1.3743196,-0.34709808,-0.19483995,0.29543567,-1.4927069,0.74191195,-0.5950316,-0.33743566,2.765688,0.56251585
MB-4343,1.3046203,2.6056864,-0.23257759,-0.8056694,-0.6965803,2.7455282,-1.400049,-3.256654,-3.4590259,-1.1370541,2.6169753,-0.25844532,-1.6354182,2.4241982,-1.5994745,5.169082,-0.12383589,0.33974853,-0.67593384
MB-4015,7.0492344,0.6934478,0.28898934,-0.9145993,-1.0735917,4.474963,-1.1712952,-6.328334,-1.4626107,-2.4147098,0.8013919,-1.2789502,-3.5686467,2.2334583,-5.247652,3.0393224,-0.99932855,-0.087693624,0.4582655
MB-2708,-0.43998775,-0.68294674,-0.9698468,-2.4361923,1.6496817,-1.7277173,1.4105897,2.8350196,-2.6669621,1.4202243,-1.3089077,0.40633255,1.3249884,-0.6568681,1.0135127,-2.151298,-0.49194402,0.02511084,0.7955816
MB-3462,-0.6418723,1.2127604,2.8630064,1.5429797,-2.111997,0.71946615,0.64168406,1.9899857,0.7059,1.1415564,1.1242723,1.2240396,1.2762339,-1.0133212,-0.29881173,0.3538494,-0.562777,0.8406993,0.29601234
MB-5383,1.7485738,1.4035646,-0.4177578,-0.99178183,1.2584207,1.4865061,0.28036585,-2.1902514,0.2035369,-0.25243893,-2.8918364,-1.063224,1.0275,1.2564216,0.41505176,-1.5600202,-1.3028376,0.42781398,0.11018159
MB-7294,0.6670426,0.85083646,-0.8897782,-1.8023005,1.4502218,-0.19527423,0.3166086,0.62396187,-0.54464555,-1.0119511,-3.3319974,-1.3787811,2.1913874,0.7948587,2.1378613,-0.9593697,-0.22114646,0.6703195,0.9342816
MB-2833,5.5168757,0.14490132,-3.714498,-1.3105223,-4.646395,0.07568434,-0.13476974,-4.9392686,-8.1747265,4.3395143,4.878113,1.3038011,0.044750266,-2.235593,-5.0901327,5.661992,-1.6622324,2.772658,-3.1145635
MB-0419,0.52227277,-0.049534246,-0.65767235,-1.8481331,1.9679523,-0.95903313,1.1361258,0.8130706,-1.1365641,1.0809772,-1.5318592,-0.14747673,0.51177555,-1.2669404,0.3056536,-2.893551,-0.65801144,1.1434983,0.8329956
MB-6050,-0.9549581,1.221967,2.842294,0.34978956,-0.053094372,0.035070505,0.34361392,2.362483,1.431694,-0.2237058,-1.3027118,-0.61620295,0.8729662,0.34529862,1.8409623,-0.6752962,0.005430326,0.7934575,0.86624897
MB-7092,2.8587577,1.1133571,0.10408162,0.59074926,-1.0114768,2.0385485,0.13920286,-1.134311,1.5384386,-1.8728524,-1.5679247,0.2504609,1.7612762,1.6126795,-0.63418686,-0.47899777,-1.1577909,-0.8312405,0.101324685
MB-0114,0.029628433,0.7429373,1.2345723,-0.46037483,0.18947835,-0.15363748,0.5198205,0.7830765,-0.6121996,1.4506559,-0.27744138,-0.06315154,0.20122257,-1.3699493,-0.13292634,-0.51220727,-0.46365607,1.6436343,0.89003044
MB-7079,6.5642905,-0.23649575,-4.069203,-2.3975527,-5.6020017,0.0067447983,-0.28072208,-6.294597,-10.297846,5.9641075,6.165287,2.0515516,-0.7361801,-2.3495772,-5.732891,6.7149377,-2.2659416,3.393989,-5.088176
MB-0425,-0.4155397,0.43781227,0.4578566,-0.7984543,0.555255,-0.93228227,0.70410544,2.028493,-0.7125958,0.40127707,-0.7069182,0.29797566,1.3776776,0.34973356,1.1819849,-1.0454613,-0.85805327,0.4419075,0.16387546
MB-0285,5.0295253,0.40410522,-3.712947,-1.599051,-5.550688,-0.0941612,-0.4575116,-4.7628193,-8.605872,4.567496,5.4738035,2.1128888,0.8530451,-1.2128719,-4.268726,6.0704465,-2.355261,2.7910314,-4.9148836
MB-7164,-1.2251294,1.2776778,2.5597358,1.5900459,-0.7521275,0.5305627,0.77994275,2.4321058,0.8439787,-0.18776217,1.021584,0.74747336,0.9602021,-0.21244676,0.048065256,-0.44179398,-0.623257,1.3255072,0.0001779683
MB-2786,1.5230851,0.90483373,-0.15853104,-1.2845368,0.7150934,0.30145973,0.09765738,-1.381101,-0.3001551,0.28241697,-1.4420228,-0.2841769,0.553981,0.15985824,0.15664995,-0.54619634,-0.7171987,0.032156855,0.90673846
MB-4322,1.0566818,2.0067022,2.2456512,0.95432097,-0.80198836,1.2515484,0.82548493,-0.33827513,1.1061763,2.2416885,-0.64201754,-0.35001552,0.15142128,-2.0507674,-1.4265141,-1.8451617,-0.7127295,2.5815573,0.89318836
MB-4929,3.0540977,-0.3408544,1.1322141,-0.5322526,-0.4399829,2.0286436,0.5112109,-0.25658888,-0.827266,-0.75177187,1.3813329,0.48089018,-2.1344798,0.3588358,-4.245989,-1.2642189,-1.2234738,0.2926186,0.49787346
MB-3049,0.5924498,1.0731663,0.57357246,0.5678095,-1.757694,0.045940485,1.2021415,0.18146206,-1.7235118,2.3172362,1.5648265,1.0797976,1.3295045,-1.9895445,-0.9645283,0.0031277537,-1.169008,2.132511,-1.1559925
MB-4797,-0.181456,0.73988366,0.5475295,-0.2837119,-0.041879967,-0.44824713,0.3550353,1.3284361,0.5366462,-0.22113344,-1.1398462,-0.029103309,1.4708016,0.010608811,1.0436558,-0.74419826,-0.21902144,0.30443448,0.42769083
MB-0324,1.3675181,-0.10262458,-1.6000706,-2.051938,1.0635955,-0.68097943,0.15523937,0.22525243,-1.0299422,-0.23917314,-2.321532,-0.7619014,0.9821712,0.6273297,0.4416191,-1.4797287,-0.1809128,-0.36786532,1.1802994
MB-4701,-2.4060292,0.4282831,3.3008933,0.6064397,0.04737939,-0.9005427,1.741265,3.7618508,-0.82187325,4.0039697,0.91387844,0.5351131,0.06323395,-4.174492,0.27188432,-1.8471797,-0.014692619,3.2671165,0.986029
MB-0244,1.0013702,0.86919045,2.0620825,2.2755277,-4.129328,0.5505391,0.22667646,0.7617696,-1.4959058,2.5390942,3.3477914,1.6959578,0.85401475,-1.3213377,-1.9471254,2.0991604,-1.043829,1.7493534,-1.1937585
MB-4681,-0.27958295,0.72613263,3.4578538,1.1568565,-1.2856474,0.5502114,1.2043242,2.098215,0.35106894,1.8960456,1.4078859,0.76773876,-0.38738295,-2.4676874,-1.1767939,-1.1621081,-0.52489036,2.2476552,0.2905915
MB-7201,6.250754,0.7264624,-1.604916,-1.0736723,-3.0127447,2.035907,-1.0317932,-5.9819427,-5.0408545,1.0380343,3.548106,-0.3484826,-2.4203565,0.341489,-5.169793,5.2325974,-1.3774927,1.4274687,-1.5181624
MB-2556,3.0263991,-0.020148456,-2.69948,-1.8345087,-3.5716918,-0.92102456,0.3653739,-2.9474487,-8.318212,5.4898157,4.813199,1.9175267,-0.19901407,-2.9723237,-3.3555984,4.533718,-1.2967772,3.2071397,-3.4629319
MB-5451,-0.7937803,0.93582565,3.4259794,1.0745587,-1.1523124,0.053706393,0.9812103,2.170696,0.53607994,2.343244,0.69894195,0.57526606,0.45426598,-2.3795028,-0.028965846,-0.8502645,-0.524609,2.3647916,0.42329964
MB-6071,0.3346082,-0.18588404,-0.81129223,-0.428187,0.13293351,-0.34076443,1.0377638,0.8140787,-1.5800607,1.7668504,-0.2749056,0.29795748,0.8018838,-1.2263772,-0.73852056,-1.109284,-0.35720134,0.9555302,0.20720655
MB-7121,2.692339,2.3780987,-2.670377,0.096721366,-3.3229825,1.6536262,-1.7516465,-5.560191,-6.2412243,0.6192374,4.5982866,0.3000263,-0.30635068,1.807632,-2.5824337,8.514057,-0.8159497,1.5648823,-3.2011707
MB-4691,-1.3226503,0.76736766,2.3321464,-0.056809112,-0.47752064,0.91820836,0.8790967,2.175248,-0.83435047,2.4991784,0.46766356,0.14769983,0.03470751,-2.1276991,-0.14239168,-0.540106,0.28406313,1.8772147,0.69823456
MB-0234,-0.10223674,0.92568207,-0.76824933,-1.2186027,1.3597857,-0.94695824,0.5950451,0.4662163,-0.40421194,0.2664343,-1.7277026,-0.04058093,2.1081305,-0.06290077,1.6098077,-1.1091242,-0.82563365,0.42474067,0.55318207
MB-6017,-1.8127844,1.1272342,3.0734856,1.3264158,-1.205603,0.03610095,0.65531576,2.6653028,0.62431693,1.8089043,1.0332906,0.7455453,0.580623,-2.108418,0.45675853,0.06075971,0.26867798,1.8211446,0.75279564
MB-4008,1.5529089,-0.02956079,-3.1319454,-2.2249622,2.1316295,-1.0758193,0.4993859,-0.02928571,-1.1813308,-1.5745994,-2.504082,-0.5283402,1.5833179,1.6066258,0.80033165,-1.4372352,-0.5928433,-0.69768095,0.58142877
MB-0542,0.634822,1.4856995,-1.2248662,1.0818706,-2.2433927,0.15844585,-0.38693976,-0.78044623,-1.3390698,0.06396942,1.2095832,0.61601734,2.0142126,1.1264359,-0.39681277,2.418034,-0.5829737,0.40713206,-1.3297415
MB-5563,-1.675059,0.6521281,3.9661448,1.2938273,-1.1793292,-0.071198,1.1302388,3.408557,0.7349101,2.6308868,1.1227756,0.6065619,-0.16802019,-3.5268807,-0.21797794,-0.86774236,0.43332833,2.552055,1.3106709
MB-4945,0.44444737,4.1763835,-2.655196,0.8948602,-1.9375585,3.2768219,-2.6086774,-5.1814723,-3.6962972,-3.5900953,3.379102,-0.58438385,1.1527846,6.1488833,0.2929367,8.9926815,-0.8193972,0.46366683,-4.2087264
MB-0081,4.1152854,1.3675411,-1.575741,-0.013908103,-3.6020093,2.1888933,-0.865435,-3.273087,-3.0452778,0.016987246,1.367963,0.0246616,0.856448,0.8793615,-2.9398372,3.203329,-1.2225032,0.99069214,-1.6430662
MB-0106,-1.2614034,2.1123133,5.2567577,4.021483,-3.1228335,2.229481,1.2468715,2.9345946,2.6518507,0.8091328,1.5556666,1.5398773,1.9528981,-0.62540865,-0.40252694,-0.44946647,-1.4179108,1.7941304,-0.49353313
MB-5049,-0.8797325,-0.2796951,-1.1174221,-1.6299992,1.458315,-0.50573134,0.66695994,1.9717748,-1.371532,-0.14298183,-1.4182178,-0.2268697,1.0435172,0.58619595,0.98294204,-1.3025385,-0.080238745,0.35807824,0.31045508
MB-0442,2.4873068,-0.78808045,-2.1457977,-1.4892449,-3.9252622,-1.2629174,0.90512353,-1.3297364,-7.59111,6.4143333,4.16625,2.5212488,0.41720942,-4.285425,-3.2465243,3.2900813,-0.97419435,3.4929225,-3.133405
MB-0534,3.059797,3.3289356,3.0957808,5.0454206,-8.109751,3.9390342,-1.2551038,-2.4918318,0.11243229,-0.51222193,4.9969425,2.5570135,3.0727158,3.5443702,-2.3308237,5.757285,-3.5854588,1.1395161,-5.0180607
MB-2721,-0.06226673,0.5023903,0.5049257,-0.74161506,0.68661654,-0.30967847,1.6100678,2.7388299,-0.42682502,-0.27505732,-1.3348097,0.11398703,1.6345894,-0.7720611,0.4500972,-1.7597709,-0.5657948,0.88372016,0.9637294
MB-7088,3.1205251,0.8497039,-1.191389,-0.99116653,1.7045828,2.6112194,-0.5471939,-3.1701205,0.09153453,-3.8957756,-1.7423418,-0.9647198,-0.2851472,4.0275364,-1.0804682,0.66473943,-1.0802665,-1.5337944,0.49447885
MB-6019,2.134503,2.8473928,1.525132,0.609646,-1.1639316,3.3253396,-0.99930376,-2.5647411,0.20541891,-1.9101257,0.45554012,-0.82331806,-0.7220283,3.0824425,-1.0744921,2.255789,-0.8698574,-0.0006212294,-0.57181466
MB-0377,1.8455006,1.4083346,1.8885425,2.1939948,-5.1091347,1.8068981,-0.4177303,-0.8846017,-1.1149029,1.3730159,3.0590641,1.7135623,1.6575937,0.21067782,-1.6542174,3.6690168,-1.547359,1.5272892,-2.6475832
MB-7145,1.0766758,4.775344,-3.0479372,-0.0651761,-0.11207937,3.9743764,-3.5810971,-7.8080835,-3.7249637,-4.640178,2.0947433,-2.6348076,-0.95210165,6.4171524,0.1572425,10.722212,0.9991663,-0.203363,-1.6985728
MB-4362,-2.464611,0.6404744,3.3341324,1.1957309,-0.81839275,-0.5293035,1.2511394,4.6873145,-0.6062653,2.0220258,2.1051006,1.448179,0.33378008,-1.9467473,0.037119113,-1.0929987,-0.11841908,1.8556411,0.5114749
MB-3001,1.7989702,2.9896936,-4.5172496,-0.5325615,-0.43353176,2.1122086,-1.6029682,-5.262586,-4.434797,-3.1020916,2.0529585,-1.0546848,-0.097244315,4.142472,-1.3426037,6.895494,-0.01713197,0.5336067,-2.2253666
MB-5364,1.1385309,1.9300581,2.4893088,1.3450017,-2.2519915,0.8069263,0.110453576,-0.5612346,0.61793715,1.3604091,0.5300915,0.571782,1.4446458,-0.60417897,0.036860626,0.8130629,-1.2696745,1.4846463,-0.5526039
MB-4292,-0.8795223,1.093724,1.0183033,-0.8138537,0.9536464,1.0239823,0.8475951,1.9785596,-0.5282038,-0.6089687,-0.31136513,-0.13014176,-0.09013028,-0.040864937,-0.28833812,-1.5736587,-0.34802216,1.4188032,0.5076281
MB-0294,2.1068895,0.3586229,-0.4514668,-0.9842723,-1.3962935,0.37503836,0.21236074,-2.2584126,-4.7239866,2.8253474,2.864659,1.1197562,-1.0586405,-1.3794814,-2.317994,2.9418266,-0.88189715,2.103579,-1.5317141
MB-4395,1.6598339,2.2738473,-2.3721364,-2.8038263,2.9255416,1.9728721,-1.0743945,-3.1438775,0.052306928,-3.1357322,-3.3451095,-2.2836113,-0.6316448,3.1008997,0.07875967,-0.03377594,0.37811744,-1.3949684,1.8154728
MB-3707,3.5352094,-0.6723017,-1.0220611,-1.1329772,-4.4870076,0.10943037,0.70383626,-1.4974875,-6.7812366,4.901549,4.0680385,2.0615196,0.013537861,-3.3317063,-4.2181067,3.6306984,-1.2114556,2.8523488,-2.4399889
MB-0606,-0.23063183,-0.026312053,-2.3665605,-1.5107872,2.2525265,-1.1449289,0.4034251,0.78877443,-0.6050011,-1.0812926,-1.8825771,0.22610834,1.4431112,1.1711221,1.195123,-1.5854236,-0.16558307,-1.1792921,0.9602944
MB-5360,0.31026193,0.49082762,0.76234543,-1.4486465,1.1597443,-0.6155337,0.5727496,0.22048692,-0.8612032,1.8503819,-0.5704798,-0.18415087,-0.18872535,-1.7916821,0.27301452,-1.4888074,-0.39345723,1.6102294,0.7544041
MB-3300,1.3928349,-0.14688222,-3.433281,-2.3486543,1.0466264,-1.4893059,0.37820065,0.09806605,-2.6777763,-0.027504437,-1.4507861,0.032611176,2.2311203,0.7348459,0.80227715,-0.6941795,-0.72214967,-0.32787773,0.0997952
MB-3748,-0.3091133,0.48819077,1.6125813,0.59660655,-0.75881505,-0.32476085,0.8629258,1.6920753,-0.89883417,1.8232969,1.2517593,1.0863405,0.116632916,-1.4496654,-0.3792057,-0.3586802,-0.5244052,1.2863423,0.122283764
MB-4665,-0.8436749,0.6885773,-0.30836046,-0.6729572,0.79713327,-0.6230077,0.88783604,1.9034288,-1.1592908,0.15778539,0.021248356,0.23167643,0.61173075,-0.65703404,0.5937202,-0.46399426,0.14169262,0.6630549,0.7045076
MB-3702,3.0359094,2.5556064,-0.85905236,1.3402691,-4.499909,2.3305237,-1.4410954,-4.55049,-4.012546,-0.02777677,4.445979,0.757419,0.66387767,2.3789904,-2.4020064,7.1824965,-1.6279585,1.2945688,-3.650964
MB-4770,4.568969,1.7496406,-1.4677713,0.4183995,-2.2759378,3.8722827,-1.5747895,-6.2869086,-2.2103364,-1.5440836,1.5289466,-0.4615963,-1.0788614,2.7700272,-3.7949305,5.376585,-0.62540233,-0.17865324,-0.9385442
MB-5175,0.6459002,1.8262771,-1.4271728,0.61380804,-3.840616,0.77698183,-0.071030065,-1.7743616,-4.565334,2.8970172,2.7060945,1.6693026,2.4276104,-1.2386669,-0.7966677,5.4260607,-0.5431753,2.2469833,-2.713185
MB-6231,-1.488158,2.1251087,1.9745768,1.0778339,-0.63469744,1.6044309,0.21544105,2.0840313,0.63337713,-1.8071233,0.5040171,0.7787795,1.5118722,2.3864503,0.725013,0.27110538,-0.92103714,0.1021379,-0.6621274
MB-2735,2.6544425,-0.08568871,-2.3407345,-2.3212807,1.5179211,0.85592705,-0.13974302,-1.7330551,-1.1763473,-2.3014753,-1.5973936,-0.4025743,-0.069780774,2.1515715,-1.120028,-0.14904447,-0.40733433,-1.2929317,0.80307955
MB-4894,0.13500705,1.6404796,-6.353419,-3.227835,3.8374538,-1.1869111,-0.2077601,-1.654757,-1.8183643,-4.296963,-3.2510245,-0.39378375,3.5070133,4.49069,3.1064625,0.6856112,-0.55124056,-2.5544538,-0.053701207
MB-3292,2.597807,2.168316,-2.597052,0.18831235,-3.849416,1.0595524,-1.1220678,-4.6715508,-6.662701,1.5406442,4.981944,0.83258855,0.5381364,0.8239404,-2.5918787,7.88098,-1.197027,2.0776105,-3.5564296
MB-4872,0.045681164,1.3064343,0.8455762,0.51336545,-0.9229572,0.7954309,0.124946564,0.21679278,0.8057751,-0.20510566,-0.44301677,0.9926139,1.7424507,1.0279212,0.35206628,0.64223385,-0.7709968,-0.6017052,0.12799963
MB-4266,2.1591449,0.8511596,-0.980962,-1.3984852,0.5483839,1.945335,-0.87420696,-2.0085406,-1.2754574,-2.27447,-0.095164075,-0.85878813,-1.0041165,2.1807992,-1.2124497,1.3422418,-0.1654078,-0.15130898,-0.29006785
MB-0536,4.638435,1.3571602,-4.502667,-2.0525331,0.31039876,0.3966235,0.52396077,-4.2587,-1.9921547,-0.46374902,-2.66993,-0.9099916,1.8098459,0.76276857,-1.7039322,-0.35541934,-1.2128882,0.66591835,-0.43054682
MB-7057,2.7495015,2.4353583,5.135896,3.679974,-4.5747027,4.0239754,-0.1471054,-0.03248347,2.9322724,-1.7649461,1.3269377,0.5811912,1.1576283,2.706472,-1.977625,1.5687573,-2.3094726,0.7872969,-1.4583411
MB-6055,1.0902869,2.0550437,-4.126946,-0.30293208,-2.3451724,-0.10400319,-1.0293067,-3.7198985,-7.160779,1.7034599,4.285861,0.40762183,0.8144531,0.5931845,-1.6158427,7.206529,-0.22163457,2.0094483,-2.917279
MB-5116,2.5284982,0.116810486,-4.9403195,-4.0569963,3.8185534,-0.023633096,-1.0561023,-2.501832,-0.8205854,-4.4645176,-4.6731396,-1.875521,1.2090645,5.246838,1.5632615,-0.7318477,-0.46914047,-2.9607015,0.8292009
MB-5264,-1.8493621,0.84545386,2.9057696,0.6955298,-0.11709134,-0.54821986,1.6314023,3.4460545,0.44955042,2.0869858,-0.18926129,0.8004665,1.4166808,-2.0281746,1.1663924,-2.2971733,-0.8379689,2.1730163,0.14969566
MB-6232,-0.7791096,1.0987755,3.0001392,1.034354,-1.466716,0.22733119,0.9598494,2.3979318,0.35008055,1.7031239,0.8247369,0.7315543,0.93034256,-2.0183425,-0.05215893,-0.23915376,-0.396428,1.9952515,0.4511823
MB-0586,-0.8082118,0.20615557,2.7134588,0.6747978,-0.90878063,-0.5575932,1.366884,3.2730057,-0.36651275,2.2938159,1.749054,1.2030249,0.203962,-2.5722492,-0.74378586,-1.7062074,-0.5501252,1.9425945,0.48436776
MB-3079,0.4487143,0.8058813,2.519469,-0.05826007,-0.5405576,0.26918116,0.92290515,1.2612578,0.06461898,1.4998461,0.15912104,-0.010293886,0.083126254,-1.8033069,-0.63319695,-1.0333085,-0.84097236,2.0391357,0.7084972
MB-7046,3.7905595,-0.58765334,-1.723246,-2.6509697,1.6141553,0.54086775,0.29068774,-2.0072346,-1.609954,-0.6397653,-1.2735354,-0.75272214,-1.453478,0.62602174,-2.4350734,-1.443849,-0.54280543,-0.3350056,1.4712875
MB-0609,0.39360598,-0.2781765,0.19159573,-0.75687075,1.0390866,-0.6421999,0.45088768,1.0689617,-0.77141005,0.3297105,0.5142006,0.062444158,-0.57360035,-0.52729857,-0.6556566,-1.3227298,-0.37929988,0.64936274,0.6459589
MB-5642,-0.42136338,0.1983605,2.2540374,0.4046904,-0.28557706,-0.61829364,0.6834519,2.8214245,-0.7025972,1.8910668,1.8080639,0.5708531,-0.47151837,-1.7348512,-0.92369884,-1.3667051,-0.50219625,1.4243565,0.91683394
MB-2536,-0.4572812,-0.03943394,2.483753,0.39705572,-1.7063714,-0.70105374,1.9433491,2.9564922,-1.632277,4.232729,1.3717486,1.5817958,0.6654537,-4.771963,-0.95612067,-1.1389506,-0.29909348,3.0926373,0.21329772
MB-4849,-1.004867,0.263736,-1.2636273,-1.7090166,1.9231834,-0.9578673,0.29302382,0.81924397,-1.3340684,0.10605469,-1.4576699,-0.25815126,0.81818366,0.45204222,1.17518,-0.68648577,-0.14670807,0.042584047,0.9466511
MB-5481,2.324165,0.49605095,-0.29743102,-0.53072953,-0.023819506,1.1415769,-0.18618807,-1.041744,0.41029844,-0.67050606,-1.5421607,-0.5945737,0.6557838,1.0394638,-0.68014413,-0.834086,-0.6621347,0.30812025,0.55097353
MB-2904,1.2748288,3.2616272,-2.954739,-0.07261231,-1.7202454,2.6246605,-1.572732,-5.1485033,-4.1034966,-1.2698172,1.4876387,-1.5120866,0.8072689,1.8051175,-0.70639575,7.3243556,0.4684567,2.5262725,-2.32146
MB-5345,-1.2334747,0.98484564,2.6758602,1.0354133,-1.2378179,-0.12368369,1.2965636,2.3768106,-1.2344574,2.5848513,2.071067,1.508521,0.57205606,-2.2522612,-0.119726814,-0.126139,-0.75847423,2.202097,-0.5614602
MB-5256,0.23764116,0.81245804,0.8987407,-0.65137225,0.8219044,-0.162166,0.95161337,1.203186,0.30095235,-0.2794141,-1.2345151,-0.30676556,0.8159125,0.038853306,0.55436736,-1.705302,-0.7237642,0.86481136,0.68033254
MB-3329,1.6667641,2.962516,0.05400186,1.4893928,-0.82233936,3.7161877,-1.0364481,-3.189703,0.77317566,-3.7826736,-0.67941296,-1.340724,0.7515786,3.6719065,-0.3497663,3.3535004,-0.31938228,0.47478604,-0.600208
MB-2725,-0.75034255,2.1517208,3.555165,2.9147978,-3.4269,2.158016,0.12218934,1.3042089,1.3241588,-0.564558,1.8582084,1.5283785,2.2742968,1.0370382,0.38423082,2.0595934,-1.2166984,0.86420864,-1.5221039
MB-6192,0.1001016,0.54129595,-2.9398103,-2.1701808,2.2975671,-0.29478928,-0.35032016,-0.33345497,-1.6116172,-1.3565294,-2.397188,-0.8876339,1.5969924,2.1844862,1.8345627,0.04486142,0.2785734,-0.971321,0.80950254
MB-6007,1.0027267,2.6201427,0.29056442,-0.063905984,0.7387792,2.1970994,-0.14662325,-1.3405893,0.9555586,-2.5905585,-1.791142,-0.6180629,1.6425316,2.761066,0.5170908,0.033197865,-1.2218065,-0.78985244,0.6222457
MB-5440,3.7152402,1.2206992,-5.160732,-3.355148,-1.8425732,0.07015659,-0.87394893,-6.7433915,-9.948399,5.2668414,3.1904147,0.043068543,0.30515045,-2.2123377,-2.9529152,6.9855595,-0.62246746,3.1685174,-2.650994
MB-2617,-0.50410545,-0.11978392,-0.42909315,-1.6403909,1.5256536,-0.82465106,1.2154579,2.8803709,-0.74467635,-0.70775414,-2.0603182,0.36740622,1.9897933,0.35427338,1.4323947,-1.8342919,-0.34145904,-0.4795171,1.1088773
MB-0517,-0.6686746,0.58504677,1.7982103,0.30219126,-0.48303306,-0.05358875,1.2507892,2.676311,-0.86975825,1.7925073,0.5509864,0.42129534,0.61973256,-1.8459566,-0.36677456,-1.1691395,-0.30209863,1.7240604,0.7723013
MB-6257,1.6564806,0.9297088,-3.8340023,-3.0567582,2.7715075,0.10339603,-0.35170025,-1.4671758,-1.1378645,-3.3993413,-3.364218,-1.1637969,2.5426614,3.56007,1.9117272,0.024058267,-0.75307655,-1.4485776,0.51954806
MB-5463,2.4769745,1.0202549,0.3648527,-0.78675115,-0.43524265,2.6441429,-0.9356427,-2.308397,0.0409706,-1.2525407,-0.79048616,-1.2759664,-1.4684517,2.566668,-1.7373297,0.8607099,-0.2064184,-0.9727906,0.7801004
MB-4704,-0.36584532,1.1818048,3.7550783,1.773998,-2.5306907,1.1465671,0.60012305,2.4935522,1.3574924,0.24293455,0.7068918,1.2196499,1.6951908,0.2199246,0.17415082,-0.3897382,-1.2787809,1.3051361,-1.0085675
MB-5019,4.661583,3.302727,2.657946,1.2895482,-2.6315835,5.530138,-2.1972883,-5.5479,0.9333368,-4.244624,-0.39866173,-2.4613764,-0.41311786,4.5556374,-1.0337905,5.689528,-0.7359161,0.67758566,-0.7107469
MB-2705,1.4382701,0.04118155,-2.2307665,-2.902603,2.3248281,-0.95486397,1.0101497,0.9969738,-0.9628133,-1.8102425,-3.1103358,-0.4137174,2.2321832,1.0889066,1.0119344,-2.205996,-0.9569002,-0.53598285,1.1004124
MB-7207,7.2143335,0.5252633,0.5144757,-0.437341,-2.1249487,3.515519,-0.9140753,-5.20628,-2.8856068,-1.5185703,2.3535922,-0.8215543,-3.1121628,2.9187787,-5.0037227,3.53384,-1.3880713,-0.22125009,-0.34099793
MB-0223,-0.3331679,0.82502425,2.0933352,1.3564205,-0.691431,0.324279,0.46903324,1.5890126,1.1421008,0.63794136,0.46123815,0.75039446,0.5793475,-0.47235677,0.0027418956,-0.9072737,-0.33618036,0.7880517,0.5099569
MB-6224,5.2890058,1.1529112,-1.6030718,-0.04490155,-1.7492801,2.2627354,-0.33216816,-4.8758726,-3.1149714,-0.14783469,2.1023219,0.18952858,-0.68959606,0.5059086,-4.1981926,3.1996863,-1.4920225,1.2654083,-1.2754117
MB-3058,3.0603771,3.2036176,-0.34581855,0.5567102,-3.534885,3.083367,-0.80048096,-4.869032,-3.5556443,0.8983137,1.5909641,0.21736658,2.1636426,0.8147106,-1.0601952,6.179866,-1.5623903,2.3299904,-2.884003
MB-0427,2.3414686,0.25125515,-1.7961814,-0.53324175,-1.5441486,0.4001724,-0.2957167,-1.5499649,-2.4286745,0.88823736,0.25176305,-0.34708184,0.8751033,0.31401423,-1.4533185,1.4513845,-0.6708858,0.901816,-0.9166233
MB-5176,3.793587,-0.19206436,-3.0294373,-1.8729947,-1.604576,-0.24758378,-0.7709502,-2.9701273,-3.937348,1.251887,0.17035466,-0.05882983,0.44532043,0.3437929,-1.7827446,2.9481883,-0.24193048,0.39769217,-0.70168316
MB-5491,-1.842716,1.1511099,-1.7753569,-1.5552723,2.668518,-0.71610606,0.11972952,0.32122514,-1.1523038,-0.18456286,-2.3061678,-0.63722634,1.6277798,0.885361,2.3325243,-0.44706297,0.028225988,0.34957,0.79857004
MB-7225,-2.7182891,4.8770914,-4.4180923,-0.27119565,2.104932,3.8136625,-4.586832,-7.489138,-3.6852038,-5.5689516,1.9275012,-2.2025037,-0.93140954,7.583724,2.317091,11.79679,2.1163352,-1.7104161,-1.6957833
MB-5533,2.526857,1.4487243,2.8319764,2.801782,-4.2253695,2.472061,-0.5305301,-1.134074,0.99750584,0.40621138,2.1954718,1.2199013,0.7519849,1.278287,-2.1608126,1.7715973,-1.9582281,0.85276634,-1.8422271
MB-0010,4.6147337,0.5550117,-2.8449519,-2.7777884,1.5294695,2.2905247,-0.24825895,-2.7315276,0.7018731,-4.4715037,-4.766677,-1.4546263,2.0098739,4.402009,-0.060164116,-1.7474298,-1.8452253,-1.9761937,0.3959837
MB-0366,-0.8863492,0.15091096,-0.36787128,-1.6771636,1.933881,-1.1516496,0.5891687,1.2282732,-1.4794466,1.1430817,-1.0881364,-0.27135646,0.45381135,-0.8844637,1.2091372,-1.108355,-0.03680843,1.041111,1.002612
MB-4000,-0.14716634,-0.1668763,-0.88216996,-1.4005151,0.38016355,-1.2100482,0.74075776,1.2974045,-2.5615861,1.6755792,0.5458602,1.0554062,0.4794666,-1.1977143,-0.028645493,-0.6398354,-0.24596033,0.92167854,0.020120904
MB-0131,0.07779769,0.95826626,0.83936685,-0.06431109,-0.4467411,0.77111477,0.53940123,0.24437885,-0.22406676,0.55873233,0.24479684,0.73673075,1.0759864,-0.1256984,-0.20172933,0.22003652,-0.95831007,0.6885553,-0.027052129
MB-6107,1.1551927,1.7024662,1.3930936,1.0427184,-1.926308,2.282993,-0.5425147,-1.4933923,0.052533187,-0.8327667,0.9828696,0.6751969,0.75126356,2.0201957,-0.8425348,2.5535312,-0.83814216,-0.5728315,-0.56816554
MB-5613,2.3087769,0.5374766,-3.7086494,-3.1409883,2.1434555,0.98953235,-0.34601676,-2.7432623,-2.5760093,-2.6494942,-2.537372,-1.694721,0.13152936,3.2208524,-0.09738336,0.27079493,-0.5102261,-0.5238186,-0.20251328
MB-0467,5.1366224,1.4862208,0.52210975,-0.2509235,-2.2224135,4.008254,-2.0442853,-5.311231,-2.5521793,-2.2517574,1.863654,-1.8222257,-2.260105,3.8105078,-3.2284515,5.537908,-0.73473954,0.7627758,-0.86499166
MB-3525,3.049586,-0.58885133,-2.1292334,-2.0860085,1.7972814,0.35753596,0.26856697,-0.46646163,0.104820125,-3.006367,-2.463524,-0.2715403,0.6695567,2.9452956,-0.68025374,-2.5189981,-1.3460226,-1.9899638,0.8032909
MB-5532,0.29670694,0.269326,-1.2281947,-1.6672344,1.0933918,-0.49419317,-0.13845798,0.45809382,-0.44137135,0.71732074,-1.4781744,-0.47676432,0.8731373,0.08512771,0.32365564,-1.6872997,-0.0173956,0.18640491,1.076298
MB-5201,-1.8905859,0.56845325,3.9145637,0.9104637,-1.0876713,-0.65813065,1.8899167,4.2129493,-0.13497025,3.8638794,1.3709581,0.86033666,0.21313487,-4.683054,-0.6459449,-2.028583,-0.06128387,3.6853096,1.2535375
MB-5041,4.974896,-0.549522,-2.167602,-2.5313606,-1.1615772,0.30965126,-0.103348985,-3.9287653,-5.7272253,2.530602,2.2453134,0.20769212,-2.0132992,-1.4088359,-4.1017156,2.6882179,-1.0014887,1.541846,-0.60923916
MB-7251,5.7436323,2.058726,1.0640916,-0.2721082,-1.6263665,5.655681,-2.1074085,-6.671383,-0.7921083,-3.110492,0.72908205,-2.1805196,-2.3459373,2.8801787,-3.730006,5.1249685,-0.5447542,0.62875456,-0.2009351
MB-5632,3.335949,0.66461277,-1.7037902,-2.2689784,0.72162825,0.9298866,-0.5648467,-2.490413,-0.5421189,-1.4266995,-2.833104,-1.191979,0.6714089,3.0284479,-0.049994268,-0.31076378,-0.766767,-1.455245,0.7707775
MB-7008,6.1161556,0.40133902,-0.66945547,0.07176334,-4.6451154,1.9295973,0.16346079,-3.723956,-4.0398107,1.2137296,2.8306065,1.8711141,1.0109621,0.79093784,-4.332987,2.98748,-3.2939317,1.3237896,-3.3747618
MB-5174,1.4543036,2.5412514,-0.5631211,-1.0941854,0.5647023,3.8128002,-1.5181253,-4.0498505,-0.2531647,-1.3817571,-1.4362875,-1.5929084,-0.6086258,2.1210065,-0.8757986,1.792239,0.0692726,-0.26562396,0.7459454
MB-5305,-2.1835518,0.115727425,2.3575094,-0.6905219,0.68503046,-0.6504609,1.1431353,3.6862664,-0.97170174,2.2738392,-0.2477445,0.259323,0.36359367,-2.0164,0.6948998,-1.5801624,0.038892977,1.895146,1.2955097
MB-5407,-1.6116165,2.3426569,4.6780934,2.9588091,-2.661932,0.9970661,0.10911748,1.6781709,2.016784,1.4844973,1.1858084,0.82936424,1.4597864,-0.7217797,0.9526944,1.0660353,-0.76996285,1.9823866,-0.4228516
MB-0256,0.0383747,0.8105159,1.8707632,0.695003,-1.157979,0.044154808,0.977742,1.810668,-0.32872674,1.7837771,0.5464811,0.81744945,1.6511862,-1.1959075,0.0579113,-0.5601154,-0.874903,1.4837332,0.021769352
MB-5166,2.2245514,0.86236125,-0.641723,-0.7943099,1.4205779,1.6055185,-0.3142056,-2.0788825,0.45163777,-1.8303741,-2.7059305,-0.8969028,0.37339535,2.2985497,-0.13471559,-1.0199548,-0.5520522,-1.0918357,1.2610593
MB-5377,0.59567475,0.8380483,-1.4003437,-0.8240583,1.4627025,-0.37551144,0.2695224,-0.24743988,-0.32467723,-0.5941775,-1.6576562,-0.18944171,1.6906126,0.9963415,0.80772537,-1.0753441,-0.87811536,-0.3144309,0.6079721
MB-0464,2.2535267,2.4852197,-2.4683876,0.077043906,0.54163706,2.6234877,-1.4252815,-4.496636,-1.4531088,-3.7854137,0.08424838,-1.701337,-0.67479247,4.0729303,-1.0982795,4.011892,-0.09804022,0.15413953,-0.7891857
MB-4949,2.5117195,-0.65668005,-2.5262449,-1.9880445,0.29869604,0.62442076,0.6944328,-0.45561248,-2.1107955,-0.62182546,-1.0313238,0.48447925,1.0415573,0.24618599,-1.6088113,-0.44830728,-0.32751912,-0.3681133,0.18527186
MB-5162,7.0273304,-0.11412494,-4.950094,-3.3826246,-5.906371,0.35203588,-0.4721293,-7.0956736,-12.405177,6.6199884,6.585353,2.1563034,-0.6468401,-2.5098944,-6.567446,7.500906,-2.7742593,4.0570307,-5.917258
MB-7158,2.768621,1.596335,-3.8875136,-1.2584252,-2.881304,0.4752794,-1.2039642,-5.25245,-8.04397,2.3263555,4.418579,0.9187844,0.1796369,0.6661418,-2.353276,7.723215,-1.144984,1.9426155,-3.8115218
MB-3303,2.0944402,0.78932536,-2.3423603,-2.297652,0.5517848,-0.29821503,-0.30602133,-1.9969311,-2.1317458,1.0248216,-2.9189434,-0.9308361,2.847578,0.68116826,1.621512,0.08029262,-0.7374707,0.3415779,0.49202684
MB-4686,0.20247301,1.2012794,3.1823761,2.0918348,-3.1446753,1.5290271,-0.30724248,1.2612339,0.90753645,1.0314815,1.1949477,0.6869647,1.4661342,-0.04695269,-0.12662774,1.4354576,-0.20307949,0.51936567,-0.16144928
MB-0211,5.586804,-0.6460741,-4.2392526,-3.0030265,-2.615549,0.6867544,-0.52603585,-4.057478,-5.849474,1.9452119,0.6286648,1.1765203,1.8471881,1.2416021,-2.7828605,2.3028464,-2.5446005,0.3346488,-3.018997
MB-4623,2.1733994,0.2534255,0.49957317,-1.1503882,0.36999714,1.0853971,0.19844273,-1.0104524,-0.18936113,-0.2413916,-0.34887108,-0.18750334,-1.1445757,0.4082937,-1.6066232,-0.5933058,-0.5579684,-0.14618188,0.92912173
MB-7051,4.7463503,-0.24612759,-2.6768305,-2.9264538,0.522443,0.73716855,0.014579162,-1.6403788,-1.9540341,-2.869962,-1.6935138,-0.61738694,0.9032847,3.481298,-0.8389224,-0.66522413,-1.7161181,-0.9512745,-0.74289167
MB-7102,1.8568907,0.2790252,-3.9716542,-1.572021,1.7537069,0.069840044,0.039200917,-0.94464403,-0.93186486,-3.5758183,-1.626973,0.15211542,1.4640664,3.4360628,-0.15364122,-0.2101608,-0.9165066,-2.0716774,0.18453732
MB-5328,0.35619196,0.824561,-1.5470694,-0.09035942,0.93837655,-0.5320022,0.72676307,0.41782233,0.341961,-0.9995615,-1.4037187,0.023008987,1.4299932,0.7409172,0.5195929,-1.4894774,-0.4689163,0.04707153,0.04808691
MB-5327,4.549357,-0.20421873,0.5237382,-0.8525485,-0.7610743,3.3940694,-1.1634483,-2.8395164,-1.5029484,-3.0945487,0.6551581,-1.008458,-2.210642,3.6931305,-2.9438672,2.4882426,-0.77417594,-0.57637876,-0.09214669
MB-6021,-0.4809756,0.9642005,4.3508353,1.6075149,-2.0957215,0.79146785,1.5028675,3.2178116,1.1332636,1.7949911,0.88298523,1.253741,1.1577705,-2.261838,-0.51669896,-1.4250233,-0.9955135,2.185194,0.1670044
MB-5261,1.4625167,0.9214092,-2.0787854,-1.5843985,1.4737539,0.06035914,0.38129073,-0.35676762,-0.49087092,-2.4773304,-2.2997236,-0.3351065,2.3623319,2.2474422,1.4166453,-0.66092443,-1.0694933,-0.8643775,0.13535994
MB-0282,1.9841,1.8012192,2.3994515,3.167538,-5.527724,1.883948,-0.49369615,-0.87748146,-0.7022279,1.1499232,4.066862,1.9783825,1.6893142,0.7462853,-2.0053759,3.5011625,-2.159092,1.4189397,-2.9259799
MB-0266,0.090448275,0.20049784,2.004524,0.16805121,-2.0637243,-0.21771389,0.4368487,0.67245674,-1.7217927,4.152327,1.4724855,0.5977013,-0.4618962,-3.324525,-1.3073763,0.20147698,-0.23251015,2.606215,-0.17954406
MB-6256,1.2227149,1.4906527,0.44610214,0.51403517,-0.7562528,0.6763729,-0.042682163,-0.7881743,0.5241604,0.035232164,-0.28768727,0.4948547,1.2554026,0.8023675,-0.19979885,0.0947757,-1.1417081,-0.083061285,0.070277296
MB-4333,0.4339944,1.4003941,4.01355,2.8130763,-2.8457074,1.8484467,0.94766444,1.938313,1.7038438,0.2627316,1.5584618,1.1988043,0.8347895,-0.57302076,-1.783516,-0.72560257,-1.487273,1.9940144,-0.47353074
MB-0313,-1.0687652,1.0612576,-5.7375603,-3.2248743,3.3093698,-0.21333696,-0.06484971,-1.3406086,-3.2458937,-2.2146258,-2.5612922,-0.5408314,2.229792,2.8476455,2.0875819,1.3837073,0.38611788,-1.3991809,0.2752652
MB-5510,-0.49767372,1.2779089,3.9912908,1.4638164,-1.6875204,0.36659217,0.96385914,2.051815,0.102088295,3.5740116,2.0371623,0.70344263,-0.40834135,-3.5996335,-1.3702987,-0.2776814,-0.117966235,2.6525092,1.1921967
MB-5393,-2.7198765,0.58627844,-0.6497555,-0.58827597,1.2880372,-1.6719415,1.2345188,3.8927965,-1.4418435,1.553905,-0.36559537,0.6876191,1.6979696,-1.4973617,1.4893848,-2.0781636,0.080405094,1.279362,0.41184238
MB-6308,-1.6003184,0.20554563,2.2048554,-0.4286112,0.46024585,-0.6576393,1.1366694,3.0751898,-1.0538582,2.2119243,0.77208793,0.5766721,-0.051601462,-2.5120041,0.34241492,-1.535646,0.042605326,1.9880776,0.557419
MB-7115,7.556129,0.27980262,-1.5681866,-1.8378286,-0.03022407,4.6148443,-1.949544,-6.1165614,-0.3372824,-5.2329454,-0.33471042,-1.7340375,-2.6673746,5.0476675,-5.0306163,1.6731766,-1.7532647,-1.636939,0.02085162
MB-3388,2.3366058,-0.061231166,-4.3513627,-3.0065904,3.6685953,0.46477303,0.31897765,-1.9273201,-1.2716854,-3.4307215,-2.783372,-0.7722029,0.38013613,3.523784,-0.2589374,-1.5879774,-0.9659181,-1.9617257,0.72325814
MB-0654,-0.86405593,0.23783086,1.953106,0.3449464,-0.24291979,-0.68069124,1.3065698,2.9293864,-0.7810764,2.587095,0.828652,0.34991935,0.1524513,-2.9013276,-0.61880606,-1.7296802,-0.29983434,2.2633164,0.88322324
MB-0236,-0.9761219,0.86475265,0.5755613,0.8257387,-0.29953825,0.028352257,-0.15556829,1.7847855,-0.29246867,-0.036226116,-0.1492458,0.21967587,1.6947035,1.050658,1.3983823,0.46302605,0.044081748,0.059648365,0.47398177
MB-0154,-1.5835247,1.4900506,5.629477,3.4049613,-3.2880507,0.67976457,1.4664059,3.8781128,1.089656,2.64667,2.5325582,1.7896186,1.1225891,-2.1830447,-0.1975129,-0.45273536,-1.0541465,2.4869664,-0.34440234
MB-0257,1.4016283,0.20713225,0.079639874,-1.2380562,1.0178316,-0.7510082,1.3353684,1.5823063,-0.09714103,-0.46066526,-0.75099665,0.80592775,0.8914635,0.07209493,-0.57107884,-2.5065868,-1.5419512,0.07691072,0.7297659
MB-4878,0.6433218,0.8222803,2.7108383,1.3053257,-1.8807595,1.4274503,-0.23671654,1.1749088,0.2355637,0.027534626,1.1878445,0.5962484,0.5095072,1.4811248,-0.34095344,0.5094025,-0.87891644,0.32114008,-0.37906614
MB-7298,1.4456863,-0.0834392,-2.6171908,-3.0958607,2.0419743,-1.1763796,0.38322455,0.4670437,-1.0925905,-0.9850773,-3.4459574,-0.58931243,2.3123527,0.66210407,1.3869203,-1.3581952,-0.08110626,-1.0152723,1.6317708
MB-3254,-0.70751834,1.1504443,3.4197404,1.1427271,-1.9846615,0.16305949,1.6026318,3.5936737,0.6387876,1.7310603,0.1821836,0.60773885,2.0075886,-2.4386787,0.09469916,-1.0255146,-0.5357453,2.5299478,0.13883963
MB-7109,4.0126567,0.070423394,-6.86735,-5.6089106,5.0004606,-0.3618095,-0.51014924,-2.6669948,-0.7980525,-7.0403867,-6.312688,-2.1378691,2.4541385,6.483138,2.011871,-1.6729524,-1.218322,-3.95352,1.1805856
MB-2517,2.560794,-0.17457364,-0.044273444,-0.013141453,0.17502709,2.0866263,0.6151416,-1.3499783,-0.9461163,-0.7051009,0.6016901,0.73355985,-1.0530021,0.42455587,-3.0396447,-0.6553139,-1.0082388,-0.08101716,0.23703253
MB-0125,-1.0881058,0.55938035,2.5188115,0.084627196,-0.5229366,-0.7788817,1.2278628,2.5551012,-1.1820741,3.6585944,1.2012671,0.52489865,0.032801706,-3.9367337,-0.71081895,-1.0332928,-0.24985299,3.1913517,1.1082941
MB-6319,0.08477021,1.1544889,2.5976284,1.097868,-1.28722,0.9535832,0.75436825,1.4356471,0.47405788,0.10654973,0.9918857,0.8254927,0.88676524,-0.23310821,-0.33626026,-0.36719412,-1.1989489,1.2359097,-0.7002238
MB-4952,3.7014644,0.3382007,-1.9615827,-1.0248142,-1.9463947,0.812208,-0.69049066,-3.8791647,-5.3217497,1.4810404,3.0255883,0.60652775,-1.0550177,0.06659196,-3.2918355,4.331308,-0.92669886,1.1942749,-1.436874
MB-4602,1.0427018,0.6920967,-5.5273967,-3.350769,3.900288,-0.51349646,-0.5067533,-1.1472306,-1.4345264,-4.552611,-3.8540695,-1.1826215,2.3537865,4.53791,2.2346313,-0.39524192,-0.32797104,-2.3936534,0.74719083
MB-5382,1.1968479,0.7105192,1.48857,0.7936104,-1.0236622,1.0108371,0.798809,1.0223857,0.011654086,0.40754458,0.61906034,0.12155123,0.19671085,-0.45308128,-1.5569767,-0.97671837,-1.0283744,1.2598811,-0.029839702
MB-3222,1.4432019,1.2242323,-0.76961654,-0.44279954,-0.11144802,0.51871675,0.6596933,-0.16484441,-0.98757637,-0.30432856,-0.6497922,-0.04628575,1.8546262,0.4816334,-0.20369604,-0.64104503,-1.3475988,0.67625165,-0.4605485
MB-4351,4.3369274,3.9921117,0.22080019,-1.263042,-0.97777975,5.5909057,-2.9452667,-6.5033803,-0.92431295,-4.583433,-0.30634966,-3.5009968,-1.6028467,5.5817447,-1.5906799,6.085312,-0.2748785,0.023892634,-0.36078003
MB-2801,0.00268358,1.1954225,-1.5618222,-1.0731013,1.9512606,0.15914108,0.99717826,0.4711474,0.48370734,-1.3248909,-3.0640883,-0.23618945,2.481988,0.98474807,1.435707,-2.217482,-0.92020184,0.13880058,0.34334722
MB-6336,-0.27944288,4.2407656,-2.958699,0.46486044,-0.33845872,2.8347313,-2.9205074,-6.0900836,-3.4678063,-4.0561967,2.4143524,-1.3775331,-0.16335154,5.508739,0.68156743,9.814151,0.81199706,-0.1637041,-2.386132
MB-0238,1.3105979,1.6416378,-3.8477063,-1.3035529,-0.98206556,0.9768324,-1.5761178,-4.791849,-5.731448,0.7675386,2.3723533,-0.70386845,-0.7550367,1.2152969,-1.528692,6.7736487,0.8247133,1.1836209,-1.3706818
MB-6051,-1.7800251,0.23089403,2.6450996,0.19279695,-0.9653784,-1.0179758,1.4662616,3.4918206,-1.0358511,4.052539,0.68435436,1.1286517,1.0366423,-3.5405471,0.44690335,-1.3572636,-0.08099538,2.31076,0.3678242
MB-0035,3.9304657,-0.26488286,0.6240535,-1.2132971,-1.0831972,2.1536539,0.43415725,-1.723759,-1.6248962,0.38546413,0.82089615,0.52278024,-2.2998874,-0.0059392108,-4.580648,0.3559513,-0.9228489,0.23979315,1.0680554
MB-0258,0.5588332,0.17979787,-1.8342253,-1.2391455,0.69464743,-0.6786603,0.49022633,0.40396872,-0.4968991,0.74720496,-2.2680676,-0.22738501,1.7614942,0.3599855,0.32980052,-1.2175411,-0.036660805,-0.32398802,0.8925948
MB-7196,3.7752762,-0.16512515,-1.1109623,-2.5627854,1.3966281,1.3234943,-0.51578695,-0.7233038,-0.20450965,-3.6679971,-3.1784139,-1.1327664,1.1944134,3.9430382,0.54887545,-1.1054685,-1.3011432,-1.7524916,0.7670427
MB-7010,-0.02504664,0.24638848,0.9540184,0.18049026,-0.39943716,-0.43464544,1.300251,1.8514456,-1.8722056,1.8764275,1.6704965,0.60186005,-0.28184432,-2.0801218,-1.4490776,-0.5402567,-0.5054212,2.0633068,0.02595514
MB-0507,0.27193114,1.2417535,-0.24195185,-0.27004528,0.07428463,-0.55995715,0.6010187,-0.177246,-0.873464,1.283348,-0.87703985,-0.30688858,1.8733783,-1.1118011,0.6761612,-0.6523097,-0.8292428,2.2214541,-0.38268077
MB-3033,-1.5962856,0.9270705,3.122943,0.7297779,-0.31704992,-0.8769549,1.1035483,2.9708836,0.18127194,2.683269,0.78819513,0.59044206,0.5067625,-2.6121802,0.71232414,-1.2261751,-0.3877203,2.2221835,0.68213165
MB-6225,0.03622379,0.71634096,0.96117324,1.1547399,-1.3671247,0.4171027,0.58270484,1.6933658,-0.3551684,0.59819347,0.93517774,0.46191138,1.2839127,-0.4766613,-0.5548829,-0.09868188,-0.6597403,1.3462566,-0.4240701
MB-2917,-0.88597083,3.649152,-4.0281377,0.19833648,0.62358725,2.1567957,-1.9286482,-5.090696,-3.5958993,-2.8593454,2.2156336,-0.7176374,0.089188576,3.5287502,-0.10737353,7.4480977,0.72660697,0.042307988,-1.567917
MB-4250,-1.3484513,1.8340837,1.452214,-0.3002174,0.9165566,-0.35642636,0.7891735,1.5650364,-0.72980285,0.67440367,-0.12747857,0.06342084,1.111953,-0.5025481,1.3821464,-0.041284695,-0.29494634,1.2132139,0.7170241
MB-0897,-0.06734342,1.2028838,3.0465338,1.7826343,-1.4571074,0.33407873,0.6135893,2.2112293,0.79924595,1.017353,1.5119444,0.9351749,0.9779383,-0.40451008,-0.6425267,-1.0132115,-1.4161932,1.4412719,-0.00003984198
MB-5039,3.649893,0.48688042,-0.74776196,-1.8599362,1.0370588,2.1055646,-1.1200761,-3.0084252,0.13395265,-3.1393113,-1.8659879,-1.6959114,-1.2357643,3.0499313,-1.0836673,0.6265351,-0.19696748,-1.0389748,1.0462025
MB-7017,1.1586925,2.9435837,-2.086512,1.0738022,-3.105531,2.0019085,-0.79930013,-3.687032,-4.0611997,0.6364323,2.714157,0.43236107,2.1721783,0.692287,-1.0172527,6.1670737,-0.62478375,2.001234,-2.8667166
MB-5014,0.799773,0.77832526,-1.9605991,-0.8242833,1.2071861,0.29723984,-0.44846627,-1.3834604,0.05797664,-1.5440409,-2.0948484,-0.49318218,1.4380138,2.64182,0.9168028,-0.37932897,-0.56673205,-1.4001181,0.29738766
MB-4318,3.0183208,0.48921865,-5.581465,-4.633103,3.8918996,-0.3616735,-1.0137737,-2.6962895,-1.3267704,-4.240255,-5.0329294,-2.345407,1.6227685,5.4971256,1.8663132,-1.1053827,-0.54850096,-2.7457378,0.96168786
MB-2744,0.60093457,3.4010503,4.160992,4.874343,-5.2653546,3.3749206,-0.499881,-0.39655334,2.1922703,-1.6591902,3.0966418,1.9668179,2.7247655,3.3603692,-0.50998473,3.5171237,-2.626814,0.30946845,-2.8649056
MB-7131,1.2503933,0.23416704,-2.1861744,-2.5934079,1.9278879,-0.6119755,0.0037758052,-0.8273768,-1.5396295,-0.7772975,-2.2899184,-0.5989481,0.97533214,1.0401306,0.6811851,-0.48026085,-0.5977827,-0.093661,0.68688047
MB-7163,-1.049574,0.8946912,3.1225746,0.9099951,-1.5511079,0.13710012,1.0145178,2.8759105,0.7173994,1.4927694,0.65934557,1.0674988,1.3731959,-1.6670806,0.42872447,-0.85129386,-0.5511145,1.6450039,-0.08053546
MB-7095,-0.44335166,0.47744274,0.048215218,-0.6926037,0.45130324,-0.960008,0.6907944,1.6920111,-1.4923254,1.173682,0.23356687,0.2558472,0.83287585,-1.0491477,0.17536977,-0.7001597,-0.5941714,1.326666,0.39856055
MB-5110,2.228911,1.2408442,3.6835341,1.763335,-3.9767895,2.4104092,-0.23984565,-0.18503463,0.70347846,0.15219781,1.8814611,1.1751175,0.46632352,0.65240353,-1.9259933,2.3045766,-1.3402073,1.0734003,-0.93270093
MB-5191,-0.9051324,1.1047623,3.3000507,1.2553277,-2.5180004,1.8433535,-0.21582413,1.5953472,-0.13436463,0.3760724,1.1906862,0.69275564,0.4127764,1.1510594,0.10416398,1.865894,-0.25682133,0.76658165,-1.1686593
MB-5052,4.469759,-0.9755422,-5.245608,-3.1187737,-1.7380781,-1.586336,0.25608277,-4.169533,-9.249724,4.414027,3.3728786,1.285454,-0.37017623,-2.4678035,-3.8583248,4.4371,-0.9940323,2.244607,-2.153234
MB-5078,2.9310315,1.6896849,0.6004991,-0.48988488,-0.85595226,2.4297981,-1.4080119,-3.432762,-0.24892047,-1.6075248,-0.6238031,-0.9881065,-0.30803567,2.235185,-0.93763614,3.0570855,-0.51294506,-0.0012404025,0.28399163
MB-7078,7.483063,1.0253949,-6.3394904,-3.70009,-3.6975486,1.8017,-1.435456,-9.220348,-9.991454,1.8534606,3.607586,-0.7481065,-1.1544542,0.59569424,-5.661399,8.03478,-1.256525,2.1864982,-3.5243397
MB-7279,4.6525865,2.420258,0.51223433,-1.1857293,0.10140632,3.6805406,-1.9342921,-4.9875646,0.6423912,-3.4710767,-1.9458625,-3.058692,-1.0115379,4.2175984,-1.0783757,1.3279046,-1.3297706,0.5179323,-0.14003104
MB-5172,5.9650164,0.34939754,0.027621046,-1.659251,-0.20845358,3.0521045,-1.1882157,-4.778876,-0.551413,-2.3109677,-0.7017052,-2.0006728,-2.1725163,2.0476182,-3.2027962,1.4698317,-0.917896,-0.20230797,0.84358525
MB-5138,-0.38305077,3.8426454,-3.051654,-0.56067413,0.89996517,1.7560056,-2.2642152,-5.3588233,-3.458004,-2.841797,0.76199836,-1.8431396,0.23807338,3.8834493,1.5719929,7.7346783,1.0147995,0.061491206,-0.9233968
MB-0512,0.2543374,0.1480101,-1.8369763,-1.9005711,1.3820401,-1.1090605,1.0878866,0.69572437,-2.2717123,0.27088705,-1.3918216,-0.022042185,1.6113473,0.3564891,1.0959227,-1.2685907,-0.99852175,0.87546396,-0.6697342
MB-7173,0.5641978,0.3636348,-0.6409952,-0.9739384,1.2157847,0.04228448,0.103982955,0.037813574,0.2448645,-1.0786091,-1.5884049,-0.40963578,0.719413,1.1953343,0.53666395,-1.0093982,-0.4076063,-0.59462446,0.67112345
MB-0288,-0.7419956,0.6620005,1.2797195,0.47257262,0.0037217587,-0.5261242,0.2371662,2.03481,0.07048432,0.19196385,0.336368,0.3059479,0.5309909,0.7796538,0.8584098,-0.5027544,-0.16666916,0.11105443,0.58723265
MB-5651,1.4145973,0.95746785,-4.2750382,-2.3788705,-0.39954752,-0.35094294,-0.42340726,-3.7640703,-7.0546627,1.9685844,2.253694,0.41226605,0.17644385,-0.515461,-1.2318943,5.1932125,-0.12777507,1.7207063,-2.160027
MB-4706,0.09269104,0.11374326,0.051149137,-0.3773039,-1.4326742,-1.1586303,1.2831707,1.0411998,-2.4013512,3.580477,1.7531867,1.567958,0.7056716,-3.0569654,-1.3296,0.025895163,-0.5469404,1.899755,-0.4229196
MB-0229,0.046479188,0.28332204,0.43608087,-0.1385379,0.3204019,-0.36524513,0.9304305,2.2486305,-0.6674709,0.030005291,0.33681923,0.30471504,0.3941937,-0.16169481,-0.44933978,-1.3580973,-0.6715232,0.7664152,0.24554142
MB-5173,1.9811846,4.166169,-3.005562,-0.28123337,-2.394208,3.2428596,-2.1580637,-6.75334,-5.3197966,-0.7618286,2.1842897,-1.1718962,1.6445054,2.56479,-0.7316052,9.370903,-0.27970928,2.2680554,-3.3492956
MB-6273,-2.1954582,2.6570191,4.1729684,1.8275626,-1.3780259,1.8821638,0.307342,2.502925,1.7342535,0.045390807,0.48250413,0.6985509,1.4671694,0.079970986,1.0900973,0.10966663,-0.53389627,1.560001,-0.16724968
MB-2927,-1.1264933,2.0245848,-0.81566954,0.08548728,0.19883595,1.7113954,0.36271715,-0.22311275,0.31423488,0.43270472,-1.9567499,0.16783653,3.3839498,-0.48567235,1.3271083,0.55692685,-0.09889209,0.5529781,0.49949124
MB-0227,-0.8994956,1.2346781,1.10898,0.48426098,-0.5485719,-0.20310263,0.28691947,1.281709,0.0710469,0.65003264,-0.3593876,0.22755162,1.7631742,-0.24024703,1.2780708,0.1424768,-0.5417783,1.0006377,0.12323294
MB-6168,0.07187617,0.42183578,1.1891186,1.0782115,-1.7989085,-0.03609292,0.91818005,1.709701,-1.3231177,2.1564395,1.6449157,1.0585713,0.8896568,-1.5358834,-0.9842615,0.03539121,-0.7555281,1.7745916,-0.7998891
MB-4843,-0.97588825,0.9206346,3.1507201,0.7854152,-1.337986,0.038451552,1.1979101,2.4896398,-0.029610068,2.2829478,0.7410094,0.7030311,0.40609097,-2.1941411,-0.13414794,-0.3955428,-0.29412827,2.209305,0.38390446
MB-7171,1.3936956,0.5903683,-0.97294354,-1.0777736,0.2875464,0.7810486,-0.35333782,-0.49178913,-0.32288826,-1.4760607,-1.6171974,-0.8808048,0.8522918,1.6399006,0.3894412,-0.00039166212,-0.148992,-0.04867109,0.14491826
MB-4722,-0.61812204,0.80298305,1.2356011,-0.38576528,0.45439923,-0.40028247,0.6843702,1.5231582,-0.28365326,1.1219559,-0.53039026,0.0376444,0.7593066,-1.2575927,0.4802902,-0.89559394,-0.38917726,1.5334524,0.9383884
MB-4825,1.2742776,0.31270272,0.4963814,-0.43301755,0.17432354,0.06444472,0.7957751,0.96688944,-0.34847412,-0.25449368,-0.19918025,0.27034768,0.7122067,0.21101333,-0.6402694,-1.5438137,-1.4954135,0.96215886,-0.15112185
MB-7270,7.0144515,3.815746,-2.152394,-1.9258635,0.75537014,5.808062,-3.1023414,-10.841683,-0.66062874,-6.5175724,-2.692177,-4.4365425,-1.7566967,6.5259547,-1.4640101,6.662476,-0.4143651,-1.0728102,0.37361228
MB-0503,-0.52770025,1.6018744,1.2710878,1.3160343,-0.8265408,0.091359794,0.40695387,0.07552473,0.05241417,1.9333924,0.97672296,0.71262366,0.4249238,-0.54363966,-0.52668023,0.016448632,-0.6777941,1.2461872,-0.2888051
MB-3123,1.1479952,4.0250087,-3.3123643,-0.53618336,-1.3563156,3.5503142,-3.9639404,-7.396021,-5.0775843,-2.413796,2.0851321,-2.46446,0.0830766,4.638557,0.25852352,11.5309,1.5145221,0.25881806,-1.4975158
MB-4323,0.49502358,0.034551993,1.3627311,-1.3944268,0.14500298,-0.15782747,0.98147374,1.6722442,-1.7301329,2.5579975,0.2408543,0.036277115,-0.46157363,-2.5724254,-1.1125633,-1.5801646,-0.38221228,2.0321329,1.2599758
MB-3371,1.645272,0.10587484,-0.8645059,-2.263894,1.9639668,-0.35833538,1.0640004,0.7014749,-0.1946949,-1.6056706,-2.747087,-0.5611015,0.86116976,0.9613328,0.032905065,-2.0536387,-0.7685145,-0.24810314,1.6064447
MB-6122,2.0623333,1.6059164,-2.6136684,0.026121676,-2.7489076,1.505195,-1.6614766,-3.7974985,-4.9599323,-0.7591141,3.4011545,0.042493984,0.15239172,1.9124669,-1.8359224,7.2045364,0.09492712,0.8649526,-2.4949646
MB-4702,1.23664,2.2541513,-5.605746,-2.4811618,3.6210425,0.75031847,-1.5363238,-3.7835429,0.029066764,-5.868746,-4.674551,-2.6789353,2.2031868,5.6763186,2.987634,1.1980786,0.35789222,-2.1046674,0.25437263
MB-5596,-1.9850419,1.1081125,4.7281795,2.394523,-2.2578526,0.23807748,0.97305983,3.610765,1.2213252,2.8117447,1.596661,1.20597,0.5618652,-3.0634453,0.03276681,-0.4892226,-0.06520742,2.3297124,0.5887236
MB-0471,3.1760461,-0.6129459,-2.4592927,-2.7572212,1.75096,-0.71970975,0.62296194,0.27229375,-1.4206932,-1.0926374,-1.6533395,-0.09356731,0.3333171,0.92962086,-1.2095913,-1.8703401,-0.5240919,-0.93807876,1.6963769
MB-5384,2.7337382,1.0707958,-0.6252173,-0.64973366,-0.6079141,1.2828485,-1.1577368,-2.7951133,0.05691836,-0.49661985,-1.7706616,-0.841521,0.9284437,2.378826,0.051689625,0.86286384,-0.48320174,-0.83086604,0.41389585
MB-4779,-1.7083421,0.81105083,3.5521061,1.5088983,-1.9959785,-0.36734548,1.5420411,3.5412,-0.11068729,3.470744,1.2737328,1.5243189,1.134413,-3.4615402,0.10779795,-0.7447463,-0.3693788,2.5898676,0.0054843165
MB-5396,0.3067154,0.0036747009,-3.2796738,-3.1086383,3.364608,-1.3870708,0.9585783,0.51623243,-1.5178381,-1.0950315,-3.256477,-0.5593287,1.63185,1.9119364,1.6430086,-2.5094254,-0.66305584,-1.2136916,0.79881245
MB-5638,-0.05811473,0.5088198,-1.8685995,-1.4181087,0.28357965,-0.2961254,-0.15986046,-0.3222389,-1.5316352,1.3269616,-1.3116759,-0.49738634,0.95975274,0.3425559,0.52678305,0.7424755,0.64633775,-0.14973846,0.70987695
MB-0573,4.0167956,-0.10004343,-1.4747945,-0.9123507,-3.4940429,0.5375604,-0.09644079,-2.4303052,-3.9581046,3.6914368,1.613577,0.26864606,0.29280078,-1.8687015,-3.4627655,2.198804,-0.7854479,2.4423592,-1.7009864
MB-4679,0.2878544,4.4698567,-4.2593584,-1.3983672,0.97913194,2.5843146,-3.3716004,-7.9521413,-4.4522905,-2.5963638,1.6304977,-2.482009,-1.2276453,4.0388083,0.31064603,9.260551,1.2041805,0.7162639,-1.6169319
MB-5645,0.35861555,-0.48305905,-1.8988305,-1.2830317,1.3201205,-1.6375328,0.6423076,0.43439546,-1.9789513,1.0925153,-0.39102232,0.16858423,-0.08822944,-0.25988016,-0.2541226,-1.0208099,-0.06407632,0.06401698,0.38134822
MB-0389,1.1251912,-0.51432383,-1.5322329,-0.9775008,1.1919987,-0.19575697,0.62940687,0.6152795,-0.7786013,-0.99343425,-1.3219068,0.67097473,0.78269976,1.4759117,-0.2936223,-1.7839174,-0.7454886,-0.88717616,0.40961024
MB-0484,3.3448265,-0.41487664,-1.0731568,-2.3808565,0.23644741,0.92042965,-0.39160612,-0.6008098,-2.0395517,-1.7242091,-0.88476956,-0.7752081,0.32724994,1.8452127,-0.73200715,0.57584107,-0.59091824,-0.30882856,0.45447126
MB-4992,0.87953526,1.1921569,3.9688818,2.2121527,-2.0922604,1.9129252,0.4037212,1.8331457,1.3422867,-0.73938936,1.4308236,0.68492377,0.19945204,1.4712517,-1.288073,-0.2053125,-1.6166971,0.8014564,-0.51654667
MB-0224,-0.9291917,1.2899768,1.30292,0.7835911,-0.8518431,-0.025765497,0.8729089,2.356215,0.14245832,0.3905938,-0.14206904,0.6694104,2.4337502,-0.28674182,1.2340316,-0.4428839,-0.69577986,0.9890123,-0.1429815
MB-7235,-0.8385714,1.2039311,1.8753374,0.90270656,-0.9966404,0.1515431,0.4018048,1.2335058,0.7368985,1.0437266,0.11352367,0.4825987,1.2193117,-0.61975825,0.5357716,0.16084316,-0.18998936,1.0001941,0.40937242
MB-3355,2.8878071,2.0554054,0.19744101,0.9303834,-1.9740975,3.083461,-1.1364071,-3.1219308,-0.80752426,-1.9327286,0.9286004,-0.67069614,0.2907463,2.3428266,-1.6763904,4.135463,-0.15634671,0.3096253,-0.30382854
MB-7217,2.101908,0.80306697,-0.1000866,0.1170682,-2.4102888,0.1498893,0.7386842,-0.93704885,-2.614608,2.5446565,1.8904918,1.1863871,0.72076637,-1.1787866,-1.7748057,1.4736124,-1.011075,1.2621694,-1.1557312
MB-2754,3.6985195,1.7457631,1.5501771,1.2714918,-3.963541,3.1875012,-0.83526325,-2.9726346,-0.48407683,-1.0539966,1.5151538,0.09613009,0.46180668,1.7997136,-2.2131138,3.9244428,-1.267401,0.6089556,-1.416456
MB-5478,0.4249687,0.037699364,-0.09275868,-0.40875286,-0.45554847,-1.0723163,1.0766191,1.0980787,-1.7742244,2.1337402,0.55661434,0.8254165,0.65596175,-2.054627,-0.7000642,-0.64122593,-0.5789823,1.6996326,-0.122760326
MB-3363,1.2753437,3.4501665,-5.746038,-1.6502278,2.2520213,2.2193947,-3.2217262,-6.7333865,-2.8987606,-6.624656,-0.66316444,-2.8529475,-0.1385513,7.564983,1.084738,7.635538,0.94381076,-2.1432815,-0.752122
MB-7250,6.7961464,1.3807976,1.6733301,-0.064567685,-1.5803615,5.1952486,-2.025579,-7.1768827,-0.4459822,-3.3031905,0.541075,-1.8698902,-3.307368,4.0147676,-4.001822,4.189007,-1.3548002,-0.22852549,-0.054813005
MB-3466,3.7331498,-0.19281386,-3.4928615,-3.5756927,2.9859614,0.6901491,-0.038170755,-2.100264,-1.1354963,-3.7338197,-3.3863695,-1.1855326,0.48207685,2.863464,-0.42407963,-1.2937275,-0.76820934,-1.5336012,1.2539134
MB-5063,4.196334,1.5760431,-1.2140771,-0.956714,-0.40834582,3.436074,-1.6258402,-5.1084595,-1.8233529,-3.3968236,0.42781705,-0.99422467,-1.4513637,3.7322662,-2.5011277,4.1455708,-0.6126119,-0.6389367,-0.038275946
MB-6190,1.3629569,0.16912937,0.2227749,-0.4204643,-0.12188265,-0.4830471,0.62977785,0.6260633,-1.0532445,0.79290044,0.70369077,0.50129676,-0.006288953,-0.18231975,-1.0847306,-0.91739565,-0.9603389,0.40238836,0.56658596
MB-5155,-2.0284216,1.7709762,2.83257,1.394342,-1.7104862,0.97971636,0.7445809,2.37063,-0.84089565,1.2467173,2.0096583,1.4349643,1.1790805,-0.7342209,0.5942418,1.2117269,-0.44588572,2.045315,-1.3226055
MB-4341,5.8175616,2.4762838,0.17091021,-0.14368674,-1.1729609,6.092629,-2.2965207,-7.0677366,-0.29519644,-4.5942974,0.0138446465,-2.144086,-1.9238737,4.437926,-3.7850316,4.655116,-1.0740061,0.12461168,-0.6742873
MB-0311,1.083319,0.6114349,-1.5837616,-2.298561,1.722036,0.097884804,-0.45372283,-1.2396398,-1.1132686,-0.65580726,-2.8468387,-1.2337689,0.8890219,1.904474,1.2988228,-0.3226812,-0.36957657,-0.2319462,0.6577332
MB-0417,0.60859895,0.594871,0.8224244,-1.0675365,0.20067699,0.38210592,0.6173471,0.2790072,-0.923638,1.2195817,-1.3808742,-0.7996325,0.514182,-1.5558902,0.45625848,-0.41932237,0.10146032,1.9444305,0.74623674
MB-0495,5.011174,0.8913783,-4.1645837,-1.5302625,-4.161654,0.73572546,-0.59209204,-5.548447,-7.9282384,2.6560326,3.9447942,1.5197563,0.8448458,0.31202453,-3.6708434,6.1328554,-2.2857559,1.9101264,-4.457211
MB-4350,3.2881114,4.0572767,-0.87634605,-0.5102416,-2.022738,4.4653993,-2.7127378,-6.5399404,-2.6943607,-2.060532,1.8423109,-1.6939526,-1.3926146,4.1748996,-2.1902144,6.8562565,-0.6764035,0.73982066,-1.5187495
MB-3487,2.3285475,0.933054,-3.7933156,-2.242402,2.1133823,0.20523116,0.021097988,-1.9370484,0.5399427,-3.3354368,-4.591857,-0.9064784,2.8857613,3.1457064,1.4676386,-1.1632948,-0.77889365,-1.965621,0.6510418
MB-4212,-3.220561,0.864446,3.809025,0.9244501,0.3083377,-0.72797716,1.9997537,4.9837704,-0.25036126,2.5894363,1.3564361,1.3027854,0.39134616,-3.2020178,0.69341505,-2.2776427,-0.13087067,2.4751694,0.82196337
MB-6344,3.3303833,0.45954853,-4.2648435,-2.5054493,2.246207,1.0200634,-0.6065619,-2.8842032,-0.24210683,-4.4487615,-3.9032886,-0.5975108,2.595241,4.834515,0.90879583,-0.6842324,-1.2602923,-2.9168315,0.28742483
MB-0899,-0.13294229,0.22336811,0.13509366,-0.4462817,0.43073672,-0.27297518,0.31832162,0.29562733,-0.44056103,1.463355,-0.58876175,0.49614623,0.5653371,-0.7441871,0.24374878,-0.56801695,-0.11473307,0.25243226,0.711575
MB-7019,0.060383894,0.14963967,-0.6887414,-1.1993375,0.19378664,-1.4013631,0.531733,1.5642211,-1.908023,1.1575097,-0.41154087,0.35254174,1.3507298,-0.47309288,0.70857495,-0.31101918,-0.44639742,0.8341263,-0.07331027
MB-5551,-1.7756677,4.1932526,-4.540129,0.04242584,1.361758,1.6785489,-2.9136705,-6.0332575,-3.9392135,-2.752739,2.095614,-1.2132016,-0.06347092,4.289281,1.1277033,9.261108,1.4016538,-0.27622116,-1.352872
MB-0143,1.1529933,-0.07379684,-1.0468736,-1.5943892,1.3979887,-0.30337313,0.5192936,0.83333695,0.3634539,-1.830791,-3.2697904,-0.4835704,1.4749717,2.4875438,0.96976507,-2.3485982,-0.84788686,-1.2312407,0.9017548
MB-7137,-0.96913314,1.1192334,3.7326422,1.4567115,-0.8080681,0.12844126,1.1879444,2.7977643,0.7429903,2.125353,1.1253436,0.81505644,0.5788103,-2.4447448,0.024242684,-1.4712397,-0.5959108,1.9715852,0.9715977
MB-2774,3.1929204,0.17961362,-1.4694253,-2.4766243,0.049632862,0.49974498,-0.07823153,-1.435297,-2.1167674,0.19062933,-2.101688,-1.3529392,1.2585729,0.57204455,-0.118490465,-0.14884971,-0.8329515,0.8916193,-0.046128187
MB-4621,0.20047131,4.3280225,-6.002815,-0.42239794,-0.14020798,2.9465535,-3.9540818,-7.784492,-5.9797125,-4.7140417,4.023933,-1.5471517,-0.93366486,7.2805686,-0.28044042,11.985663,0.8447715,-1.0177377,-2.9085228
MB-5008,4.369909,0.4019592,-3.598913,-3.6029136,1.5135843,2.1628363,-1.6256323,-6.208373,-4.505201,-2.9449582,0.4719314,-0.9180701,-3.0496557,3.9707487,-2.8475158,4.2588687,-0.043647364,-2.2444365,0.4015822
MB-7097,2.299945,1.1033344,1.3677477,-0.66207105,-0.009058401,1.5891764,0.6080968,-0.16641234,0.9398168,-0.6000842,-1.7023064,-0.7028373,0.8511783,-0.09030497,-0.7364836,-1.673821,-1.306221,1.5483446,0.68563485
MB-3092,0.12040148,0.6266718,-1.4396951,-1.2487857,1.7903622,0.35003158,-0.033546284,-0.54535526,-0.6730766,-0.57488555,-2.3517482,-1.1279578,0.70960283,1.3425771,0.8619879,-0.72447085,-0.23585322,0.038024828,0.6923333
MB-0522,4.054404,1.0014125,1.5395104,1.1297479,-2.1032553,4.0091467,-0.61662686,-3.5511515,0.6793236,-1.220194,1.2669928,-0.05726129,-1.6913145,1.3205874,-4.2674003,1.8839173,-1.147666,0.2616579,0.2872372
MB-7253,2.9917524,-0.31166893,0.23645991,-2.1896033,1.0435265,0.39756456,0.40541977,1.3331637,1.2090002,-2.2109752,-3.841303,-1.4769735,0.86667,1.0674887,0.21902266,-2.4501371,-0.13929945,-0.3932289,1.931324
MB-5213,5.0694947,2.0776772,0.2961161,0.2976871,-1.9935324,4.842055,-2.195225,-6.345605,-0.98877823,-2.8011138,0.83278257,-1.3412385,-1.6402453,3.4884048,-3.3390787,5.5358477,-0.71283954,0.012614444,-0.5696898
MB-0491,0.6924069,0.7197592,-0.31045428,-0.16056159,-0.6449366,0.26393414,0.10044013,0.7963347,-0.9270723,-0.81340003,-0.21739227,0.11316073,1.9122956,1.2632103,0.6957317,0.71084565,-0.59864485,0.40107715,-0.50960684
MB-6280,-0.49143252,4.415046,-2.5630202,1.3553538,-0.77773446,3.2439883,-2.2851803,-5.295274,-2.983031,-4.103681,2.7691224,-1.2234132,0.078125544,5.696255,-0.0783721,8.648185,-0.03926277,0.66587913,-2.7832997
MB-0650,-0.21043614,0.2773,0.64463705,0.024993151,-0.6524595,-0.50893253,1.2687902,2.5511312,-0.45631376,1.2412223,-0.43136442,0.87939715,1.7764761,-1.2009418,0.009988807,-1.1845188,-0.29109687,0.73233664,0.52886546
MB-7297,1.0308695,0.16971336,-4.743234,-2.9146202,3.4264328,-1.1491299,0.4447323,-0.2850822,-0.9289418,-2.2835746,-3.8829427,-0.29546693,2.4145265,2.2994747,1.3989512,-2.1540222,-0.49384695,-2.0049503,1.2931038
MB-7031,-0.41086826,4.994572,-6.1780367,-1.246664,2.5318522,2.9416368,-2.7016513,-8.549407,-5.8210874,-5.259946,1.9710913,-2.6094587,-1.5221696,7.005945,0.29657486,10.350389,1.0332253,-0.48827523,-1.7584581
MB-5020,0.015227832,0.7296863,1.1737753,-0.01754535,-0.09873408,0.25973323,0.29223683,0.33785,0.036261417,1.4048644,-0.27518582,0.118868485,0.50698555,-0.873254,0.07702797,-0.3844263,-0.35928154,1.0528587,0.58122575
MB-5468,-0.016030572,3.219062,-4.3181076,-1.059747,1.1791719,2.4508677,-2.5296936,-6.43741,-5.3797903,-3.4667952,2.715978,-1.5500933,-2.04587,5.806057,-0.51440644,9.076768,0.99447787,-0.4328397,-1.8112909
MB-6147,2.9653933,2.3374903,2.1126697,3.3156152,-6.1089067,2.7541602,-0.6253574,-2.0682735,-0.93074346,0.24856144,4.02688,2.1388044,2.217178,2.1855476,-2.1904142,4.365292,-2.9931176,1.1862117,-4.000297
MB-0406,2.5475807,-0.056460187,-4.490171,-3.462042,2.9650006,-0.2434971,0.06815736,-1.2997739,-0.634208,-3.8245363,-3.6308353,-0.6508109,1.7694244,3.4911928,0.569959,-1.3241096,-0.7883868,-2.5474203,1.0091767
MB-0504,-0.14842644,1.0336167,1.483368,0.9869353,-0.8918289,-0.17255823,1.362838,1.7935456,0.03301444,1.1664633,0.37955186,0.3043923,1.0943805,-1.8343593,-0.28876904,-1.5839396,-0.9533325,2.7711725,-0.6427473
MB-6330,5.464866,0.8716713,1.7941484,0.66241217,-2.9196634,3.99767,-1.703804,-4.1719403,-1.0506592,-2.242626,2.6566956,-0.5794931,-2.4078612,3.1549563,-4.032083,4.3698063,-1.2083647,-0.5638875,-0.40491214
MB-6135,1.3276684,0.46890897,-3.7273865,-2.537017,2.3404145,-0.65649354,0.044719994,-0.9829095,-1.8174305,-2.0650373,-2.2285469,-1.1005943,1.3454276,2.1830604,0.9644405,-0.5348505,-0.33178023,-0.49309075,0.2886464
MB-4838,0.45534816,-0.28973562,-5.1831512,-4.599956,4.020908,-1.713911,-0.40692317,-1.1579071,-2.6566858,-1.1639714,-4.0891666,-1.0540307,1.3187573,2.692884,1.8432703,-0.64691055,0.14663006,-2.2497334,1.5139832
MB-0235,-1.6241479,1.5261195,2.965679,1.1425805,-0.34139484,-0.3871694,0.95593804,2.374114,0.3991665,2.1152494,0.4468338,0.19327748,1.2417734,-2.1560936,1.1579386,-1.175344,-0.5889444,2.8715222,0.2687863
MB-0349,-0.21574306,0.45871896,-0.5339549,-1.5226738,2.1291165,-0.88502866,1.2135892,2.0471144,-0.45622227,-0.4086385,-1.8588791,-0.2291866,1.0209647,-0.14907168,0.94113815,-2.7390144,-0.56970847,0.46709752,0.996477
MB-3013,0.95456856,0.7434273,1.3720652,0.39024866,-2.4154372,0.5648104,0.839626,0.882775,-1.4045988,1.708286,1.2410207,0.8904787,1.2731996,-1.7463053,-0.96396124,0.5088408,-0.94339746,1.871274,-0.86215025
MB-0559,1.184123,0.6365285,-2.7878811,-1.7132246,2.287985,-0.11399542,0.69359547,-0.47825822,-1.2784265,-0.85054064,-1.9906805,-0.5227109,1.3209429,0.7616366,-0.022367425,-1.3253133,-0.40719074,-0.45829546,1.3541347
MB-5227,1.6133654,0.14368735,0.58951354,-0.637084,-0.25385714,-0.086074725,0.5246282,0.2679777,-0.8748206,0.5910768,0.43217605,0.24069442,-0.04140743,-0.24443083,-0.9211495,-0.8143913,-0.9128962,0.42461413,0.41594842
MB-5084,-2.3838413,1.562622,4.167798,1.5498822,-0.770073,-0.021553408,1.1074042,3.571047,1.3003247,1.9068661,0.66445625,0.75833094,1.2184653,-2.0333893,1.2001946,-1.2399876,-0.5092661,2.3135478,0.47315004
MB-4234,-1.6452564,1.7605087,2.513217,0.89642376,-0.12759177,0.65655255,0.64167243,2.823346,0.42049906,-0.046757452,0.68728805,0.7047093,0.719929,0.14269039,0.5918299,-1.0605149,-0.680933,0.9044735,0.27271783
MB-4641,-1.408317,0.82641083,4.065964,1.6639223,-1.9773266,0.021638772,1.3584821,3.6624804,0.7466078,2.7375739,1.319816,1.1865379,0.91706705,-3.1986966,-0.4096907,-1.1292162,-0.33588627,2.5315988,0.6165606
MB-0286,3.2688122,-0.13327204,-2.402036,-1.0446737,-3.480268,-0.7284687,0.48236358,-2.0648704,-6.435793,4.082382,3.5293891,2.267727,1.0942509,-1.7734178,-2.8204548,3.1447418,-1.906424,2.157673,-3.1411417
MB-3014,1.0050077,3.9534926,-3.4514499,-0.79156107,-0.53370047,2.4236794,-2.1841226,-6.1742916,-3.784325,-3.0015392,0.9548013,-1.6785716,0.51561415,3.87374,0.4368774,8.723454,0.9539975,0.2591356,-1.3983377
MB-2796,0.7008492,0.12044327,1.1889732,-0.26883727,-0.8580749,0.37993333,0.49870205,0.8248441,-1.24849,0.82074857,0.3810401,0.7068705,0.069838956,0.18519004,-0.7829719,-0.025986582,-0.6591785,0.1127317,0.11010515
MB-7058,0.79580855,1.6905012,4.3568335,1.4429128,-2.315718,1.6754447,0.83574253,1.094526,1.611449,0.59191006,-0.38796198,0.09498295,1.6535017,-0.9406514,0.3959352,-0.07696454,-1.100476,2.3686616,-0.19229203
MB-5287,-1.557311,0.70541054,2.8346121,0.94575995,-0.42891508,-0.12159482,1.3319614,3.3408515,0.28107408,1.6327223,0.54661775,0.5447837,0.84994215,-2.2204292,0.2641983,-1.6363548,-0.288286,2.0997138,0.5532206
MB-7281,5.908253,1.4306457,-1.0440732,0.70904726,-2.3175316,3.7322996,-0.61333025,-5.832693,-1.5090219,-1.3585553,1.3958358,0.020314634,-0.8581676,1.761859,-4.6875424,2.829653,-1.9411819,0.89800656,-1.7192497
